tree
version=v4
num_class=1
num_tree_per_iteration=1
label_index=0
max_feature_idx=135
objective=lambdarank
feature_names=Column_0 Column_1 Column_2 Column_3 Column_4 Column_5 Column_6 Column_7 Column_8 Column_9 Column_10 Column_11 Column_12 Column_13 Column_14 Column_15 Column_16 Column_17 Column_18 Column_19 Column_20 Column_21 Column_22 Column_23 Column_24 Column_25 Column_26 Column_27 Column_28 Column_29 Column_30 Column_31 Column_32 Column_33 Column_34 Column_35 Column_36 Column_37 Column_38 Column_39 Column_40 Column_41 Column_42 Column_43 Column_44 Column_45 Column_46 Column_47 Column_48 Column_49 Column_50 Column_51 Column_52 Column_53 Column_54 Column_55 Column_56 Column_57 Column_58 Column_59 Column_60 Column_61 Column_62 Column_63 Column_64 Column_65 Column_66 Column_67 Column_68 Column_69 Column_70 Column_71 Column_72 Column_73 Column_74 Column_75 Column_76 Column_77 Column_78 Column_79 Column_80 Column_81 Column_82 Column_83 Column_84 Column_85 Column_86 Column_87 Column_88 Column_89 Column_90 Column_91 Column_92 Column_93 Column_94 Column_95 Column_96 Column_97 Column_98 Column_99 Column_100 Column_101 Column_102 Column_103 Column_104 Column_105 Column_106 Column_107 Column_108 Column_109 Column_110 Column_111 Column_112 Column_113 Column_114 Column_115 Column_116 Column_117 Column_118 Column_119 Column_120 Column_121 Column_122 Column_123 Column_124 Column_125 Column_126 Column_127 Column_128 Column_129 Column_130 Column_131 Column_132 Column_133 Column_134 Column_135
feature_infos=[0:75] [0:6] [0:12] [0:12] [0:75] [0:1] [0:1] [0:1] [0:1] [0:1] [0:8695] [0:3233] [0:6530] [2:183] [3:12046] [-2.6546349999999999:97.808031999999997] [3.77698:513.52506000000005] [1.8190599999999999:497.332786] [-0.28251399999999999:362.45687400000003] [-2.7264020000000002:97.741985] [0:136425] [0:91] [0:754] [0:16] [0:136425] [0:1819] [0:83] [0:273] [0:6] [0:1819] [0:1819] [0:83] [0:481] [0:12] [0:1819] [0:1819] [0:83] [0:377] [0:8] [0:1819] [0:392502.25] [0:328.6875] [0:37355.555555999999] [0:16] [0:393129] [0:60.338346000000001] [0:3] [0:2] [0:1] [0:60.072654999999997] [0:1] [0:1] [0:1] [0:0.5] [0:0.80096900000000004] [0:1] [0:1] [0:1] [0:0.59999999999999998] [0:0.80096900000000004] [0:1] [0:1] [0:1] [0:0.5] [0:0.80096900000000004] [0:0.25] [0:0.25] [0:0.25] [0:0.089999999999999997] [0:0.055556000000000001] [-613.35950200000002:148615.79949199999] [0:717.09447899999998] [0:4601.9466970000003] [-0.565029:110.767751] [-614.64769100000001:144756.56371399999] [-423.65652399999999:3037.8924710000001] [0:717.09447899999998] [0:2114.8858300000002] [-0.565029:57.064176000000003] [-424.45331199999998:3045.09247] [0:6204.7685439999996] [0:717.09447899999998] [0:2872.2933459999999] [0:66.524619999999999] [0:6195.4248349999998] [-212.789278:3822.2306290000001] [0:717.09447899999998] [0:2300.973348] [-0.565029:57.064176000000003] [-220.608383:3827.064691] [0:8555367.2634609994] [0:15148.518083999999] [0:1535871.1799369999] [0:780.37470699999994] [0:8529619.7536360007] [0:1] [0:1] [0:1] [0:1] [0:1] [0:1] [0:1] [0:1] [0:1] [0:1] [-20.254420500000002:427.54162800000006] [0:97.613922000000002] [0:105.42737099999999] [-0.71807549999999998:87.680828999999989] [-20.3094015:416.46239400000002] [-213.85342499999999:0] [-141.71242100000001:0] [-201.168173:0] [-197.718425:0] [-214.28927200000001:0] [-199.74590000000001:0] [-138.20396099999999:0] [-195.72249400000001:0] [-207.12921:0] [-199.985715:0] [-237.54978299999999:0] [-169.91323399999999:0.70560100000000003] [-237.08922200000001:0.70557000000000003] [-226.41988900000001:0] [-237.65135699999999:0] [1:22] [5:1064] [-2083777989:314131554] [0:178] [210:131068] [2:131070] [0:508] [0:254] [0:13124682] [0:3463106] [0:1960000002]
tree_sizes=3564 3586 3541 3558 3559 3571 3585 3588 3552 3573 3570 3584 3584 3576 3585 3574 3560 3584 3567 3563 3578 3590 3603 3585 3582 3577 3582 3582 3566 3580 3594 3554 3584 3579 3610 3545 3569 3557 3571 3580 3575 3591 3559 3589 3599 3597 3596 3570 3580 3573 3587 3579 3588 3590 3570 3569 3561 3574 3552 3578 3584 3568 3579 3575 3569 3569 3584 3581 3585 3578 3590 3597 3600 3576 3558 3559 3565 3591 3565 3578 3579 3577 3540 3562 3568 3563 3554 3550 3585 3595 3563 3544 3554 3558 3565 3537 3589 3556 3576 3546 3559 3541 3538 3571 3563 3610 3585 3542 3537 3541 3545 3564 3573 3551 3558 3547 3553 3556 3566 3563 3550 3560 3574 3573 3528 3540 3465 3505 3522 3495 3585 3506 3584 3512 3479 3557 3506 3466 3546 3487 3522 3490 3482 3511 3558 3574 3472 3495 3447 3486 3502 3508 3533 3464 3475 3565 3573 3471 3572 3488 3526 3549 3558 3511

Tree=0
num_leaves=31
num_cat=0
split_feature=54 133 7 14 107 114 60 133 108 19 133 107 54 123 107 10 12 130 126 69 133 20 60 130 13 107 133 132 13 44
split_gain=3595.56 1229.31 931.538 765.239 461.104 424.076 318.346 308.649 264.336 228.901 209.695 180.569 151.755 150.652 113.938 101.36 95.1726 85.7069 77.718 74.2826 71.0459 67.5367 61.1305 61.0408 60.5815 57.1795 52.4839 47.2685 44.0059 44.4833
threshold=0.0060800000000000012 1.0000000180025095e-35 0.43650750000000005 47.500000000000007 22.518285000000002 -16.136228499999998 0.0042820000000000011 1.0000000180025095e-35 15.387902250000002 14.237897000000002 1.0000000180025095e-35 21.946839000000001 0.017597500000000005 -2.4079004999999998 34.955790750000013 466.50000000000006 3.5000000000000004 79705.000000000015 37.500000000000007 1.2500000000000001e-05 1.0000000180025095e-35 18.500000000000004 0.0012675000000000002 131065.00000000001 4.5000000000000009 16.734307500000003 121.00000000000001 2.5000000000000004 4.5000000000000009 1.0200000000000002
decision_type=2 2 2 2 2 2 2 2 2 2 2 2 2 2 2 2 2 2 2 2 2 2 2 2 2 2 2 2 2 2
left_child=2 4 3 16 8 6 15 9 12 11 13 -4 -2 19 21 -5 -1 -10 -19 -7 25 24 -17 -23 -6 -8 -3 -25 -16 -30
right_child=1 26 7 5 14 10 20 -9 17 -11 -12 -13 -14 -15 28 22 -18 18 -20 -21 -22 23 -24 27 -26 -27 -28 -29 29 -31
leaf_value=0.032173119374502922 -0.021806882798839647 0.10494490539698507 -0.043357826625780138 -0.08616758785125514 0.060895384904510956 -0.079205185265790595 -0.077624253384409814 0.12205956538227435 0.012165839461869473 0.019739386250825469 0.10030456700198626 0.0042913619988164181 0.010344519190183131 -0.019017233944804028 0.10914542560318033 -0.16423035350760659 -0.057896651521722166 0.072801518353895076 0.027030600935822238 -0.044482380491341421 0.11651376276557653 0.042920326499558882 -0.11985220491799314 0.14138669197000653 0.015618750422899015 -0.030899195642981488 0.14545337946631495 0.022955213400274732 0.039375895830182452 0.072117894747208006
leaf_weight=903.9906079619077 2467.9585209163697 638.38492008922549 2096.1940529520189 439.73718176438456 351.73448279235527 1466.8872373168952 1400.6020878189033 182.61741067279581 899.97405369159696 1696.2620634175537 93.204066325055464 1280.8712035824401 3622.8487931037816 1017.2149108771246 196.99019814644271 626.46173341357144 134.64790483782417 789.12112069887371 702.10760803929952 1066.345107048639 20.797230372087142 1976.1165337113125 624.80582547517974 115.06975379584037 1856.0727230465563 323.32004269865729 650.8466260163641 48.007885916536907 688.04640146822385 1054.1797851757492
leaf_count=49740 163536 28545 140780 32279 18368 106929 99702 6779 54337 99633 3944 77425 225596 63538 7954 51006 9443 38311 42727 71840 726 114763 48006 4289 115102 21234 22467 2928 40338 54994
internal_value=0 0.031768 -0.0384291 -0.0596649 0.0235916 -0.0714251 -0.0966329 -0.00562706 0.00837819 -0.0102275 -0.0476511 -0.0252826 -0.00268154 -0.0515407 0.0441171 -0.12756 0.0204825 0.0365524 0.0512614 -0.0645952 -0.066647 0.0351185 -0.14209 0.0477857 0.0228389 -0.0688691 0.125412 0.106619 0.0642805 0.059196
internal_weight=0 16057.5 13374 8118.01 14768.2 7079.38 3435.72 5255.94 8482.01 5073.33 3643.65 3377.07 6090.81 3550.45 6286.22 1691 1038.64 2391.2 1491.23 2533.23 1744.72 4347 1251.27 2139.19 2207.81 1723.92 1289.23 163.078 1939.22 1742.23
internal_count=1817259 934255 883004 558387 883243 499204 252953 324617 524507 317838 246251 218205 389132 242307 358736 131291 59183 135375 81038 178769 121662 255450 99012 121980 133470 120936 51012 7217 103286 95332
is_linear=0
shrinkage=0.1


Tree=1
num_leaves=31
num_cat=0
split_feature=133 7 124 134 14 128 13 108 24 130 49 127 70 117 133 126 135 128 13 108 129 126 48 75 104 62 134 128 128 2
split_gain=9782.72 2662.98 1069.8 925.622 842.342 620.812 560.576 532.785 432.357 408.504 287.862 284.924 240.631 174.256 157.39 140.254 137.885 131.359 139.016 124.969 123.632 122.441 119.438 162.582 102.252 101.046 99.8932 95.6121 94.0797 88.9437
threshold=1.0000000180025095e-35 0.52777800000000019 -5.1347669999999992 67.000000000000014 31.500000000000004 11.500000000000002 4.5000000000000009 15.435250500000002 19.500000000000004 131065.00000000001 0.022971500000000002 1.0000000180025095e-35 129.55163750000003 -17.229329999999997 493.00000000000006 27.500000000000004 20.401793007283104 1.0000000180025095e-35 3.5000000000000004 28.616029500000003 68769.000000000015 33.500000000000007 0.15587050000000005 1.0000000180025095e-35 0.27508500000000008 0.12838800000000003 385.00000000000006 1.5000000000000002 1.5000000000000002 1.5000000000000002
decision_type=2 2 2 2 2 2 2 2 2 2 2 2 2 2 2 2 2 2 2 2 2 2 2 2 2 2 2 2 2 2
left_child=1 2 4 16 20 6 11 10 21 15 13 17 -11 -6 -5 -7 -2 18 -3 25 -1 27 23 28 -15 -10 -16 -8 -4 -12
right_child=3 5 22 14 7 9 8 -9 19 12 29 -13 -14 24 26 -17 -18 -19 -20 -21 -22 -23 -24 -25 -26 -27 -28 -29 -30 -31
leaf_value=-0.023350281628209877 0.04389462246517345 0.049724217945175106 -0.0220916517458042 0.096078967122804559 -0.11851711763456703 0.067467441511905202 -0.025892285031320607 -0.02817905109284018 -0.018930175702786243 0.024922257684121617 -0.071652630611969081 0.070861877167062506 0.10523380829682305 -0.061403761040366038 0.10528567501386372 0.0030022362982267069 0.074791526733707536 0.041192923070287234 -0.0090738807835049999 0.024096604745418932 0.024241007962755523 -0.038122859352014302 0.015950090340948155 -0.061491505309877494 -0.10501160476005011 0.0020060823831491961 0.14506240792969335 0.014016456403801961 0.010832916989350825 -0.039183543537926871
leaf_weight=1419.8200752111443 2782.4335427643382 483.98067850567168 2223.1114090181509 1847.8206069525331 2343.0021783893899 392.93511329340981 1757.6957070247154 2366.4729986350867 3413.2393356897519 592.89471635513473 4426.5063622455928 1049.1230383146903 1008.2038992519956 1306.1488948033657 904.88858651113696 2391.2110562116723 3010.4641480107093 1127.2596759315347 2374.1668938595685 1746.2102511040284 886.52320684154984 5841.2624911128078 1382.9015304312343 711.78935850510607 917.1724678609171 7099.0021672016592 2119.0337740976829 911.22105972119607 1423.0645135600789 1044.7525821055169
leaf_count=34354 21631 8557 65288 11584 188913 8662 56503 87014 105333 14954 253557 20957 12810 83525 4082 70455 19738 25401 61925 33384 17428 211571 28778 32888 68432 162015 7030 26899 38653 34938
internal_value=0 -0.0184031 -0.0462641 0.0869762 -0.060552 0.000471232 -0.00544028 -0.0708704 -0.0126976 0.0352567 -0.080934 0.0244955 0.0755037 -0.0994762 0.119104 0.0121061 0.0599539 0.012286 0.000880511 -0.000674923 -0.00505232 -0.0300142 -0.00965056 -0.0177768 -0.0794014 -0.00479091 0.133167 -0.0122629 -0.00923885 -0.0654552
internal_weight=0 50639.7 20451.3 10664.6 14710.4 30188.4 25803.2 12404.1 20768.6 4385.24 10037.6 5034.53 1601.1 4566.32 4871.74 2784.15 5792.9 3985.41 2858.15 12258.5 2306.34 8510.18 5740.87 4357.97 2223.32 10512.2 3023.92 2668.92 3646.18 5471.26
internal_count=1817259 1753194 933768 64065 768161 819426 712545 716379 595705 106881 629365 116840 27764 340870 22696 79117 41369 95883 70482 300732 51782 294973 165607 136829 151957 267348 11112 83402 103941 288495
is_linear=0
shrinkage=0.1


Tree=2
num_leaves=31
num_cat=0
split_feature=135 7 54 14 13 128 119 107 48 130 107 108 47 48 125 14 122 14 24 52 107 49 107 13 130 128 128 13 83 130
split_gain=3670 2454.17 858.966 841.378 690.711 885.196 664.331 579.98 393.032 377.323 354.517 332.359 270.815 224.067 213.883 202.489 168.207 166.7 145.617 145.319 139.534 122.461 120.173 115.377 127.83 104.964 103.656 93.2877 95.7817 89.7827
threshold=34.005324234334708 0.52777800000000019 0.0042940000000000009 31.500000000000004 4.5000000000000009 13.500000000000002 -6.398534999999999 31.916225250000007 0.24695100000000003 131065.00000000001 32.122878750000005 15.435250500000002 0.19953700000000005 0.13423400000000005 1.5000000000000002 378.50000000000006 -21.442061999999996 1333.5000000000002 15.500000000000002 0.15108700000000003 31.097037750000002 0.025371000000000001 16.642662750000003 7.5000000000000009 27439.000000000004 1.5000000000000002 1.5000000000000002 5.5000000000000009 9.0175365000000021 79137.000000000015
decision_type=2 2 2 2 2 2 2 2 2 2 2 2 2 2 2 2 2 2 2 2 2 2 2 2 2 2 2 2 2 2
left_child=1 3 15 23 14 7 11 13 10 -7 22 17 -11 21 20 -2 -17 -5 -9 -14 26 -6 29 24 -1 -8 -3 28 -10 -4
right_child=2 4 8 6 5 9 25 18 27 12 -12 -13 19 -15 -16 16 -18 -19 -20 -21 -22 -23 -24 -25 -26 -27 -28 -29 -30 -31
leaf_value=-0.0334559000321379 0.035543002108520926 -0.003340489271613946 -0.0005939520426666041 -0.071866631143833778 -0.066187566681581197 0.007805007397414028 -0.038334700919661124 -0.019617899397443891 0.083742335721035344 0.014636560137512897 0.097358938198931766 -0.034803094633786488 0.061179983625858983 -0.010419345474519288 0.061900040717421001 -0.06331585484934861 0.0022320373479592461 -0.11124685005184665 0.018488507516490737 0.12471998198556289 0.054728573371499611 -0.03173190332201066 0.053279917350980248 -0.027098232132946532 0.027376395814758803 -0.0013621638682763052 0.047461837976985555 0.07510970200788919 0.13931742025816976 0.039596570134470127
leaf_weight=432.38432531652506 1402.404418330756 1812.3089440903859 930.85443344141822 6322.610698406148 1285.7331150782993 2034.8540642639855 1280.5774025904248 1241.8512605209835 508.62275048997253 649.23464652127586 1387.2263272907585 2247.7731220269052 733.42884720978327 5020.6846801962238 2081.3006768262712 511.75088117818814 1663.843132387643 1297.0613590387802 5203.736153580714 709.21274482551962 876.49743659771048 5235.2337542511523 3227.8125437506242 926.78572888165945 1714.2335420577438 1919.1131586224074 515.77371205273084 846.15888685360551 802.2386151929386 1377.7666189449374
leaf_count=13392 38722 47288 30833 430460 63428 51533 57202 42775 4618 11916 13016 85491 7939 156593 26178 32781 56771 109716 102412 5592 10624 202349 54991 30369 33815 42939 7243 10853 3241 32179
internal_value=0 -0.0137582 0.0474142 -0.0446911 0.00446327 -0.00329882 -0.0557638 -0.0128824 0.0637656 0.0384701 0.052149 -0.0686037 0.0682927 -0.0263016 0.036938 0.00591234 -0.013184 -0.0785728 0.0111449 0.0924301 0.0207212 -0.0385279 0.0408177 0.00238365 0.0151176 -0.0161631 0.00791174 0.101044 0.11777 0.0233878
internal_weight=0 43540.4 12658.7 16140.5 27399.9 22114 13067.1 17987.2 9080.68 4126.73 6923.66 9867.45 2091.88 11541.7 5285.88 3578 2175.59 7619.67 6445.59 1442.64 3204.58 6520.97 5536.43 3073.4 2146.62 3199.69 2328.08 2157.02 1310.86 2308.62
internal_count=1817259 1539254 278005 803384 735870 644537 725808 567557 149731 76980 131019 625667 25447 422370 91333 128274 89552 540176 145187 13531 65155 265777 118003 77576 47207 100141 54531 18712 7859 63012
is_linear=0
shrinkage=0.1


Tree=3
num_leaves=31
num_cat=0
split_feature=133 7 100 128 13 134 64 24 130 125 64 47 48 47 126 120 47 52 133 129 128 10 48 128 122 14 134 121 13 126
split_gain=7607.89 2204.97 870.404 648.044 625.145 513.809 418.359 393.737 393.095 280.54 276.779 214.624 213.226 165.926 160.117 149.513 149.259 137.408 128.711 124.212 118.302 106.789 106.332 102.227 97.2154 204.528 96.4851 79.1831 74.5291 72.8647
threshold=1.0000000180025095e-35 0.52777800000000019 0.28439100000000006 18.500000000000004 4.5000000000000009 197.00000000000003 0.0057575000000000013 19.500000000000004 131065.00000000001 1.5000000000000002 0.0133965 0.18230700000000002 0.14550250000000003 0.41277900000000006 33.500000000000007 -35.479083999999993 0.59629650000000012 0.13714750000000003 63.000000000000007 61205.000000000007 3.5000000000000004 2651.5000000000005 0.12613650000000001 1.5000000000000002 -2.5032534999999996 31.500000000000004 21.000000000000004 -8.8178809999999981 3.5000000000000004 27.500000000000004
decision_type=2 2 2 2 2 2 2 2 2 2 2 2 2 2 2 2 2 2 2 2 2 2 2 2 2 2 2 2 2 2
left_child=1 2 10 4 9 26 -4 14 29 16 15 -10 -8 22 23 -1 20 -13 -7 -12 28 24 -9 -6 25 -17 -2 -14 -3 -5
right_child=5 3 6 8 7 18 12 13 11 -11 19 17 27 -15 -16 21 -18 -19 -20 -21 -22 -23 -24 -25 -26 -27 -28 -29 -30 -31
leaf_value=-0.11468467025722191 0.052982255249188016 0.02519553701616762 -0.11016471265636932 0.049330891176238442 -0.031981320909777636 0.069011353293491187 -0.066443913439167723 -0.029793138267262067 0.011884583174423305 0.05046923714855215 -0.010743860319751948 0.041173031284168896 -0.038490082672111424 0.0083228146809453795 -0.045246848855327954 -0.010040323171488766 0.046961386162909034 0.1085703742640156 0.12137106741269482 0.036363800774375656 0.042630147683236773 -0.10613751660740339 -0.0022179839107278189 0.010847399397955898 -0.01193372117826242 -0.064039710586538776 0.079843180032412905 0.010223676646032772 -0.019811253675545901 -0.0087933382904670492
leaf_weight=219.91804359428352 3164.245011308929 443.48799120867625 1806.2732946731267 263.29942514991853 1219.6443417675328 558.32442833529785 5252.9862900844892 2756.4993419587845 474.63189906580374 2240.6937291250797 1490.5387235821108 425.33364610827994 1376.7612732215784 5810.513077758369 4393.621788599412 1265.2946473718621 714.31473725894466 1053.5892352787778 2999.3231936157681 896.02778896864038 465.23499071598053 180.22454298460798 2839.8867899178294 1025.6477836910635 2186.9555105307081 1575.3180239534267 2323.0163016531151 439.97229575610254 2153.3737386302091 1189.9813325044233
leaf_count=17843 32518 7979 171456 3927 56503 4169 360235 113709 9736 25755 49191 4451 65987 130640 224478 35510 9805 6672 11495 21254 7336 12864 83175 31221 70406 115840 15883 13182 68067 35972
internal_value=0 -0.0171131 -0.04578 0.000304261 -0.00547474 0.0835544 -0.0672076 -0.0147823 0.041124 0.0224376 -0.0214393 0.0704207 -0.0562294 -0.00351242 -0.0341443 -0.033919 0.00580182 0.089198 0.113159 0.00693913 -0.00379769 -0.0305043 -0.0158022 -0.0124131 -0.027789 -0.0399915 0.0643568 -0.0266873 -0.0121205 0.00173316
internal_weight=0 44160 16690.3 27469.8 24062.9 9044.91 8875.99 18045.8 3406.84 6017.11 7814.28 1953.55 7069.72 11406.9 6638.91 5427.71 3776.41 1478.92 3557.65 2386.57 3062.1 5207.79 5596.39 2245.29 5027.57 2840.61 5487.26 1816.73 2596.86 1453.28
internal_count=1817259 1753194 933768 819426 758668 64065 610860 639726 60758 118942 322908 20859 439404 327524 312202 252463 93187 11123 15664 70445 83382 234620 196884 87724 221756 151350 48401 79169 76046 39899
is_linear=0
shrinkage=0.1


Tree=4
num_leaves=31
num_cat=0
split_feature=133 7 114 14 128 13 107 134 108 58 107 125 49 114 58 129 47 131 49 69 74 53 128 133 129 17 131 73 133 129
split_gain=5920.67 1774.62 738.287 581.836 475.169 461.579 415.511 362.399 285.395 272.508 204.301 167.234 152.452 139.687 137.811 128.679 100.705 109.766 99.6817 86.1943 80.7171 75.5895 75.5301 74.2096 72.3408 69.9158 73.5783 69.1403 67.5107 62.886
threshold=3.0000000000000004 0.52777800000000019 -4.6528154999999991 31.500000000000004 16.500000000000004 4.5000000000000009 31.916225250000007 119.00000000000001 17.321829750000003 0.11651600000000002 26.583081000000004 1.5000000000000002 0.022971500000000002 -11.042091499999998 0.13961050000000005 43423.000000000007 0.19953700000000005 5.0000000000000009 0.043486500000000004 5.5000000000000007e-06 117.98492450000002 0.24038450000000003 2.5000000000000004 137.00000000000003 114600.00000000001 11.187984500000001 25.000000000000004 10.518046000000002 1.0000000180025095e-35 73837.000000000015
decision_type=2 2 2 2 2 2 2 2 2 2 2 2 2 2 2 2 2 2 2 2 2 2 2 2 2 2 2 2 2 2
left_child=1 2 3 15 5 10 14 -2 12 20 11 27 13 -5 18 -1 -11 -18 -7 -8 -6 -4 -16 -9 -12 -17 -27 -3 -14 -21
right_child=7 4 21 8 9 6 19 23 -10 16 24 -13 28 -15 22 25 17 -19 -20 29 -22 -23 -24 -25 -26 26 -28 -29 -30 -31
leaf_value=-0.032411312544129128 0.059291049372131366 -0.014994082474716923 -0.009096183074916277 -0.10092340030907553 -0.01688257528063199 -0.046388400182433294 -0.013235458076678187 0.073740360520223647 -0.024583224464338589 0.020960342612336529 0.036731324330354108 0.032392749355408562 -0.059712468859790771 -0.062997062726286746 -0.019731034161545934 -0.01951453435671175 0.091342363249242109 0.035313096825960351 -0.022718591626539018 0.010626592728968948 0.026669170396234756 0.043082391264103501 0.010897805132003877 0.109377531272638 0.087118827911775831 -0.049352623472520174 0.048628484843708047 0.072131375471768663 0.025566064694696179 0.048995855338690386
leaf_weight=811.97892309306189 3971.42817264318 2138.2764087453252 4033.625258711545 2312.1126737084414 865.38495482259896 2869.6418442760478 1474.57681240479 725.92476856033318 1586.777871489583 529.67887644050643 1807.5917649392504 1443.2337530218065 4219.3197927785513 1679.2442357807595 1984.745544603793 307.07258176000323 991.97550365608186 541.33883750124369 4690.9574260473601 4403.323307427112 836.91948735062033 298.01328710862435 1354.0521235668566 3059.0145986545831 338.75099214282818 86.591930503025651 656.33342019980773 95.005488021532074 94.701168225612491 473.20096253207885
leaf_count=31991 37367 70176 131299 230797 25390 154640 49629 5147 72085 11268 26178 18510 304670 135597 80064 8197 7579 10516 203983 94614 16503 5784 41772 12199 3610 2423 12560 1477 1005 10229
internal_value=0 -0.0145328 -0.0407966 -0.053802 0.00120818 -0.00416659 -0.0123844 0.0804015 -0.0634546 0.0341461 0.020177 0.00586154 -0.0708795 -0.0849715 -0.0242316 -0.00251439 0.0585833 0.0715713 -0.0317043 0.00794576 0.0045236 -0.00550312 -0.00730653 0.102547 0.0446922 0.0205967 0.0371897 -0.0112802 -0.0578376 0.0143528
internal_weight=0 42924.4 16085.8 11754.1 26838.7 23073.4 17250.5 7756.37 9892.16 3765.3 5822.86 3676.52 8305.38 3991.36 10899.4 1861.98 2062.99 1533.31 7560.6 6351.1 1702.3 4331.64 3338.8 3784.94 2146.34 1050 742.925 2233.28 4314.02 4876.52
internal_count=1817259 1762546 936408 799325 826138 754882 634931 54713 744154 71256 119951 90163 672069 366394 480459 55171 29363 18095 358623 154472 41893 137083 121836 17346 29788 23180 14983 71653 305675 104843
is_linear=0
shrinkage=0.1


Tree=5
num_leaves=31
num_cat=0
split_feature=133 7 114 128 14 107 134 107 48 13 114 129 125 131 64 129 128 48 134 133 85 29 126 126 40 80 108 13 18 49
split_gain=4660.25 1352.8 441.47 424.548 358.597 540.842 354.756 337.344 303.011 274.852 188.915 185.846 155.163 128.786 127.641 112.773 112.195 91.0985 82.2609 81.6981 79.2523 76.9954 77.1982 76.106 74.914 72.4306 65.5932 65.0845 60.8231 57.957
threshold=1.0000000180025095e-35 0.7321430000000001 -4.2747884999999988 8.5000000000000018 31.500000000000004 17.998370250000004 161.00000000000003 31.916225250000007 0.15587050000000005 4.5000000000000009 -13.907979999999997 62401.000000000007 1.5000000000000002 5.0000000000000009 0.0033195000000000004 55609.000000000007 1.5000000000000002 0.16064500000000001 7.0000000000000009 123.00000000000001 73.466313500000012 3.5000000000000004 26.500000000000004 30.500000000000004 1.0000000180025095e-35 189.51396650000001 16.914183000000005 6.5000000000000009 12.311482000000002 0.054477000000000005
decision_type=2 2 2 2 2 2 2 2 2 2 2 2 2 2 2 2 2 2 2 2 2 2 2 2 2 2 2 2 2 2
left_child=1 2 4 7 15 10 18 9 25 12 14 24 -3 20 -6 -1 -12 29 -2 -8 -10 22 -7 -4 -9 27 -18 -5 -17 -11
right_child=6 3 23 8 5 21 19 11 13 17 16 -13 -14 -15 -16 28 26 -19 -20 -21 -22 -23 -24 -25 -26 -27 -28 -29 -30 -31
leaf_value=-0.027948815953783419 0.035403225301704186 -0.0096133559717581796 0.014346681082097079 0.031284414578589707 -0.10702560532671644 0.0052643120325830527 0.06168309111808018 -0.019241276166843249 0.047382054605477057 -0.045875191447628694 -0.062296872419555227 0.053919195539280845 0.032969972950318546 0.032454804639732653 -0.066689904595707353 -0.015902982194221416 -0.039764583703720824 -0.011967615098390784 0.062096142376065956 0.10054392772123387 0.10229429084374264 0.0034758161964448114 -0.033656583076861514 -0.014328753790840254 0.012534218891190083 0.042881202341889024 0.006189290633547442 -0.0084426093617997137 0.036489670677459722 -0.022843887571887475
leaf_weight=843.90266457991675 1983.5431972480146 2137.3359827517997 1480.2795104783436 525.02405467699282 1127.3998775702785 619.17820602870779 673.21204708237201 912.27998535218649 439.03235829761252 2411.8743998231948 2695.8826587207732 999.79224401852116 1426.5843119791243 1150.179063106305 2593.7234485485533 314.19865961465985 1694.1356355116295 2649.9086536978139 2772.3359998092055 2800.007536476478 659.20515845471527 1111.2589369898778 2867.9897982238908 2468.7999186035886 3968.4273198283045 471.68125814397354 379.86280320072547 1920.7722411886789 749.42807545850519 2002.6313153773081
leaf_count=36452 23828 71568 38545 12429 128111 20108 5400 31204 6928 149876 213057 18547 18889 24622 200719 8662 127943 104603 23500 11278 4676 39010 122911 82230 86338 8998 16409 64534 13078 101598
internal_value=0 -0.0138083 -0.0333274 0.00325307 -0.0411606 -0.0470636 0.0687164 -0.00457534 0.0282722 -0.0152087 -0.062023 0.0146414 0.00742976 0.05586 -0.0789158 -0.000648516 -0.0488409 -0.0266309 0.0509664 0.0930164 0.0803579 -0.0194382 -0.026743 -0.00357738 0.00659256 0.00700635 -0.0313432 8.21885e-05 0.0210033 -0.0354301
internal_weight=0 40620.8 18946 21674.7 14997 13089.4 8229.1 16508.8 5165.89 10628.3 8491 5880.5 3563.92 2248.42 3721.12 1907.53 4769.88 7064.41 4755.88 3473.22 1098.24 4598.43 3487.17 3949.08 4880.71 2917.48 2074 2445.8 1063.63 4414.51
internal_count=1816051 1752045 1047235 704810 926460 868268 64006 582623 122187 446534 686239 136089 90457 36226 328830 58192 357409 356077 47328 16678 11604 182029 143019 120775 117542 85961 144352 76963 21740 251474
is_linear=0
shrinkage=0.1


Tree=6
num_leaves=31
num_cat=0
split_feature=133 64 126 106 122 132 134 107 128 107 128 128 107 10 132 60 10 24 126 64 100 107 63 107 15 7 127 131 112 112
split_gain=3715.47 1206.13 447.114 381.743 314.211 307.559 269.968 219.814 206.185 166.545 142.476 137.804 129.924 157.054 127.657 104.922 101.905 96.9717 90.1672 76.715 74.2905 72.6112 71.0161 72.6348 68.6352 67.7567 63.6154 62.6489 60.2411 54.7663
threshold=3.0000000000000004 0.013223500000000001 33.500000000000007 22.865696250000003 -15.987447999999999 19.500000000000004 43.000000000000007 24.944003250000005 3.5000000000000004 27.513398250000005 17.500000000000004 2.5000000000000004 17.998370250000004 24.500000000000004 1.5000000000000002 0.0074285000000000002 24.500000000000004 16.500000000000004 21.500000000000004 0.0030310000000000003 0.28439100000000006 21.262944750000003 0.15849300000000002 21.375873000000002 8.3879610000000024 0.58571450000000003 1.5000000000000002 29.000000000000004 -3.6871669999999992 -2.5902664999999998
decision_type=2 2 2 2 2 2 2 2 2 2 2 2 2 2 2 2 2 2 2 2 2 2 2 2 2 2 2 2 2 2
left_child=1 4 5 7 12 8 -2 10 9 15 20 16 13 27 -5 -3 -6 -9 -8 -15 -4 28 23 -10 -13 -22 -7 -1 -18 -24
right_child=6 2 3 14 11 26 18 17 22 -11 -12 24 -14 19 -16 -17 21 -19 -20 -21 25 -23 29 -25 -26 -27 -28 -29 -30 -31
leaf_value=-0.10216956189094953 0.042662515681817476 0.047549444965833645 -0.012072099884972503 0.079250946489034371 -0.010196772437094151 -0.021157243382621968 0.096500365734162152 -0.028791988550410336 0.017006052692714446 0.040931350706029483 0.0030067671122449109 -0.033800844108382036 -0.028869606023040673 -0.10828314634553143 0.016487294892965899 -0.0021085409504948654 -0.066143487758894906 0.0023969315278701045 0.067499050934928612 -0.070239996897840787 -0.054170727560704103 -0.022958985317839773 0.087896546206253562 0.057674619381233444 -0.0007805754970398723 -0.030876575658216145 0.0062837845155988802 0.014922830618816926 -0.03702622228299389 0.032931965793280775
leaf_weight=55.698073011008091 2916.9565729410388 478.89129781350493 1227.8828785970982 404.05515225289855 1046.1943953179289 2225.7719202343724 2162.1637477404438 1233.5319279785617 941.16873911576113 1637.7735684758518 1210.5428895112709 903.97098710783757 842.36674486368429 770.7103878390044 1639.4190441732644 3806.8504553675593 1640.1442501423589 5192.4305430284003 2136.9761893171817 1713.5256193991809 1962.63313782966 1065.7390067623346 595.1742291720584 824.98486506938934 2074.7460033992102 3445.4760985485627 1360.8017052801442 251.95683642069343 1258.4858682138147 261.87817801209167
leaf_count=2508 30950 9668 44860 5286 33617 80182 9456 61736 30521 33400 36102 55378 37473 97005 47234 153327 145040 140128 14154 150630 142723 41914 7662 14884 80745 187339 39766 7336 68834 6193
internal_value=0 -0.0117947 -0.00070494 -0.011516 -0.0389363 0.0138322 0.0661538 -0.0173043 0.0241461 0.0138073 -0.0285351 -0.0278444 -0.0633157 -0.0737038 0.0289057 0.00343892 -0.0379713 -0.00358891 0.0820889 -0.0820504 -0.0342905 -0.0452981 0.0474873 0.0360105 -0.0108056 -0.0393328 -0.010743 -0.00626948 -0.0535069 0.0711192
internal_weight=0 40072.8 28449.3 16316 11623.5 12133.3 7216.1 14272.5 8546.72 5923.52 7846.54 7989.28 3634.26 2791.89 2043.47 4285.74 5010.56 6425.96 4299.14 2484.24 6635.99 3964.37 2623.21 1766.15 2978.72 5408.11 3586.57 307.655 2898.63 857.052
internal_count=1816051 1761491 1041011 665408 720480 375603 54560 612888 255655 196395 411024 425528 294952 257479 52520 162995 289405 201864 23610 247635 374922 255788 59260 45405 136123 330062 119948 9844 213874 13855
is_linear=0
shrinkage=0.1


Tree=7
num_leaves=31
num_cat=0
split_feature=133 54 71 126 133 100 72 20 128 14 130 49 129 47 130 48 47 64 64 47 18 120 110 108 54 70 126 129 29 130
split_gain=3060.02 1067.05 362.603 367.468 256.166 239.982 437.643 209.763 202.568 155.522 120.855 106.312 99.563 97.0964 96.017 94.3991 91.4908 91.4494 86.0509 73.5649 64.3781 62.7305 60.5135 59.7088 58.9538 58.0635 56.4292 48.6408 51.09 63.0245
threshold=1.0000000180025095e-35 0.0070935000000000008 19.222388000000002 32.500000000000007 123.00000000000001 0.32860650000000008 11.213501000000003 12.500000000000002 1.0000000180025095e-35 2115.5000000000005 122698.00000000001 0.05258100000000001 125263.00000000001 0.23079500000000003 127086.00000000001 0.24695100000000003 0.28647400000000006 0.0090365000000000011 0.0030310000000000003 0.54006450000000006 17.500884000000003 -35.479083999999993 -4.5561744999999991 19.801099500000003 0.018368500000000006 208.99500450000002 20.500000000000004 83001.000000000015 3.5000000000000004 131065.00000000001
decision_type=2 2 2 2 2 2 2 2 2 2 2 2 2 2 2 2 2 2 2 2 2 2 2 2 2 2 2 2 2 2
left_child=1 5 3 8 20 9 18 -5 11 17 -4 -3 -6 -8 16 19 -9 21 -7 24 -2 -1 -13 -20 -10 -16 -17 28 -15 -30
right_child=4 2 10 7 12 6 13 14 15 -11 -12 22 -14 27 25 26 -18 -19 23 -21 -22 -23 -24 -25 -26 -27 -28 -29 29 -31
leaf_value=-0.092646641055179627 0.023842436171402175 -0.020663037332727948 0.025389728563417424 -0.03321482076405595 0.061801780893960517 -0.098907674109626489 -0.048052181184208578 -0.026637852919957818 -0.0042807816452197622 -0.087675176949647909 0.077704905817394074 0.018488007715291414 0.093315010197337386 -0.026685975406425439 0.0089180553499098678 0.086794600632597946 -0.00081700732471048855 0.0033909846925601742 -0.063364774073858751 0.054284100381758828 0.051046167159396083 -0.019865285407402133 -0.012557647750189202 -0.0094235958495051762 0.025104182649497698 0.060624925900850016 0.031215303170646393 0.010075707703437584 -0.0081273165399234331 0.078869871519751056
leaf_weight=122.08222163902246 1681.5235015000217 1744.1521612178767 1235.8846836327575 3647.4721193207661 2455.0476166626904 678.76434621863882 1167.4785701443325 1958.925423376495 983.6304461134132 293.78751069155987 687.88597659906372 2314.3340605779085 1700.3400664324872 2659.7860930073657 746.61038598767482 397.56304916390218 4584.4317218728247 2162.1196115103958 3128.3694933711959 598.99800715572201 1807.3931389050558 3949.7922592950199 861.0860403085826 220.1269059391343 2227.7527310769074 306.53999785461929 339.56614159385208 635.0247134793899 705.26893873000517 94.311332567827776
leaf_count=13043 20127 75193 35273 222464 19061 89374 70609 114970 37355 27769 9285 64574 7694 100988 21858 5415 141645 64315 278050 10339 17124 205919 31718 12237 59952 5063 7159 21191 25014 1273
internal_value=0 -0.0113485 0.00257641 -0.00128067 0.0579245 -0.0312764 -0.0416029 -0.0135035 0.0132352 -0.0165797 0.0441044 -0.000826629 0.074701 -0.0226101 -0.00403741 0.0284494 -0.00854897 -0.0132262 -0.0664145 0.0221071 0.0379389 -0.0220521 0.010066 -0.0598221 0.0161007 0.0239822 0.0612127 -0.0153521 -0.0200228 0.00213017
internal_weight=0 38451.7 22634.8 20711.1 7644.3 15816.9 9289.13 11244 9467.08 6527.78 1923.77 4919.57 4155.39 5261.87 7596.51 4547.51 6543.36 6233.99 4027.26 3810.38 3488.92 4071.87 3175.42 3348.5 3211.38 1053.15 737.129 4094.39 3459.37 799.58
internal_count=1816051 1752045 842263 797705 64006 909782 598736 506000 291705 311046 44558 171485 26755 219075 283536 120220 256615 283277 379661 107646 37251 218962 96292 290287 97307 26921 12574 148466 127275 26287
is_linear=0
shrinkage=0.1


Tree=8
num_leaves=31
num_cat=0
split_feature=133 54 71 126 122 74 134 128 5 107 107 14 128 64 49 107 132 134 132 64 29 108 107 126 14 132 47 17 130 53
split_gain=2548.36 943.828 332.2 301.749 241.549 214.651 206.492 165.838 140.159 196.647 133.737 130.194 114.799 105.615 103.101 96.7684 86.7412 86.1104 83.9568 78.6629 76.5165 70.2061 86.3239 64.0963 58.3988 56.135 60.2271 53.0079 51.9642 51.5582
threshold=7.0000000000000009 0.0065625000000000015 25.774740000000005 30.500000000000004 -21.067066999999998 72.982340000000008 1137.0000000000002 1.5000000000000002 0.85164850000000014 17.796495000000004 22.067238000000003 31.500000000000004 22.500000000000004 0.0084205000000000026 0.05258100000000001 30.665855250000003 40.500000000000007 15.000000000000002 3.5000000000000004 0.0033195000000000004 1.5000000000000002 16.232080500000006 26.880849750000007 30.500000000000004 2115.5000000000005 2.5000000000000004 0.32971000000000006 16.105466000000003 131065.00000000001 0.10620300000000001
decision_type=2 2 2 2 2 2 2 2 2 2 2 2 2 2 2 2 2 2 2 2 2 2 2 2 2 2 2 2 2 2
left_child=1 4 3 7 10 -5 17 14 13 29 11 -1 15 24 -3 -7 -16 -2 -4 -13 -11 22 -9 -15 -6 26 -14 -19 -22 -10
right_child=6 2 18 5 8 12 -8 21 9 20 -12 19 25 23 16 -17 -18 27 -20 -21 28 -23 -24 -25 -26 -27 -28 -29 -30 -31
leaf_value=0.0066578556847072812 0.031322769488190044 -0.014172391000395156 0.078710654168399952 -0.025228561197212885 -0.021302175127129785 -0.014944423966874308 0.092116723785589757 0.0095884326052566651 -0.070475791336178636 -0.04451537275369883 -0.016717672901359226 -0.10021819563849388 0.028067876830458329 0.019768695857859925 0.021658592332557802 0.0084358742974548744 -0.016748553317782057 0.048794233615274324 0.028814469822973761 -0.058457180118854625 -0.013196915585769584 0.053030853934419857 0.05214551760781555 -0.0098274033114052594 -0.078965095838996177 0 0.092191964856766589 0.076211333478853976 0.049548857040282862 0.0044459768947248584
leaf_weight=259.14363310579211 1657.5007064465899 2032.3127651860705 607.92694799351739 5192.5010448597022 3849.3024417222914 3671.6868892411585 1518.0999865625054 1632.2621091549518 1375.8322726598126 856.44681426428724 894.00826053472701 578.02847433478746 437.72641619073693 1110.9797862845589 2919.0886197529617 3417.667056512204 735.98805719520897 1755.296179381432 759.66881618916523 2073.595624643116 1653.6117674839334 1070.4828819383401 673.64691890846007 2143.2080340675893 184.10850254038814 349.90809095802251 220.68374387919903 1184.3612597105093 143.28937599482015 98.140472446219064
leaf_count=8078 19383 86526 8452 295013 211913 181068 6541 48160 132020 34508 36191 82077 8776 32250 79364 82683 24588 14396 18369 179717 64519 18971 10747 82726 20174 10419 2004 7447 2564 6407
internal_value=0 -0.00930604 0.00316378 0.000236181 -0.0287422 -0.00935812 0.0601314 0.0143053 -0.0214671 -0.0361925 -0.0505648 -0.0609562 0.000817495 -0.0131256 0.00388097 -0.00367178 0.0139219 0.049565 0.0510059 -0.0675679 -0.019917 0.0318611 0.0220271 0.00027393 -0.0239386 0.0323881 0.0495867 0.059846 -0.00818537 -0.0654806
internal_weight=0 38941.2 23721.6 22354 15219.7 13290.2 6115.26 9063.78 11414.9 4127.32 3804.78 2910.77 8097.67 7287.6 5687.39 7089.35 3655.08 4597.16 1367.6 2651.62 2653.35 3376.39 2305.91 3254.19 4033.41 1008.32 658.41 2939.66 1796.9 1473.97
internal_count=1816051 1768284 875140 848319 893144 579963 47767 268356 587081 240018 306063 269872 284950 347063 190478 263751 103952 41226 26821 261794 101591 77878 58907 114976 232087 21199 10780 21843 67083 138427
is_linear=0
shrinkage=0.1


Tree=9
num_leaves=31
num_cat=0
split_feature=133 64 126 46 134 122 132 2 14 127 64 122 109 132 108 24 132 133 134 108 17 131 17 127 29 60 109 13 125 126
split_gain=2129.39 797.562 318.759 320.811 257.733 223.311 218.292 132.199 127.283 126.27 119.771 106.199 89.6807 78.6776 72.2819 70.8239 74.3892 69.2406 61.9401 60.5206 52.8173 50.2013 47.9622 46.5579 46.4655 45.8817 44.7287 42.1258 44.2332 39.3732
threshold=1.0000000180025095e-35 0.013223500000000001 32.500000000000007 0.50925950000000009 177.00000000000003 -14.930683499999999 23.500000000000004 2.5000000000000004 38.500000000000007 272.50000000000006 0.0043645000000000012 -5.6903894999999993 33.465831000000001 1.5000000000000002 24.505902750000001 36.500000000000007 1.5000000000000002 589.00000000000011 3.0000000000000004 16.376781750000003 17.425729000000004 29.000000000000004 14.324882000000001 100.50000000000001 3.5000000000000004 0.0058600000000000006 50.253773250000009 4.5000000000000009 1.5000000000000002 33.500000000000007
decision_type=2 2 2 2 2 2 2 2 2 2 2 2 2 2 2 2 2 2 2 2 2 2 2 2 2 2 2 2 2 2
left_child=1 5 6 7 18 8 9 11 21 12 -10 24 -3 -5 20 -13 -17 22 -2 -11 29 -1 -6 -8 25 -4 -20 -14 -29 -7
right_child=4 2 3 13 17 14 23 -9 10 19 -12 15 27 -15 -16 16 -18 -19 26 -21 -22 -23 -24 -25 -26 -27 -28 28 -30 -31
leaf_value=-0.093607703064336314 0.017100000192091624 0.0041771884373299605 -5.500565420483964e-05 0.066668201163592095 0.024448700074005583 -0.023709623851147305 -0.018299793849716899 0.0026622778917022383 -0.088304252357184296 0.030288735428529119 -0.046627610329472484 -0.01965217905468317 0.040728975042750255 0.017496414794199666 0.02011598873183286 0.039666513601983595 -0.0079515857988990291 0.084888422950853443 0.036968196837620801 0.068398757287506065 -0.016515068214615774 0.016941267364936976 0.070297415046450706 0.014188826338411183 -0.017887258531573497 -0.047075947212102093 0.068387082800770133 0.057130974163490701 0.0085649162257297878 -0.046891319381229563
leaf_weight=47.10280126699945 1355.3597549810074 3970.9889194369316 229.61484410974663 409.6936978896847 385.54849720397033 1533.189959264826 2256.6608157690498 3114.7038366697961 1012.428154506546 1229.4771293528611 2170.4595853071369 4939.6254082298256 1301.9111461852444 1586.1295205933857 375.9167410263326 432.73893431707984 1354.7420347739244 1869.8997496543452 2391.8069908136968 631.87115767359501 3407.9324675638636 316.2112839014153 562.34541098424233 547.82232938380912 1106.243588477897 2198.7341628667782 560.51535474695265 221.21947512787301 1234.7211034655338 1408.6574130924419
leaf_count=2720 17975 134708 9452 5606 4011 101854 85672 93174 140564 32825 170813 257653 27371 46585 12525 8646 49496 8519 25256 10549 164534 10000 3574 14930 65025 148868 4671 5928 37231 115316
internal_value=0 -0.00949371 -0.000402966 -0.00979868 0.0501995 -0.0331815 0.0122716 -0.0153794 -0.0534891 0.0201805 -0.0598898 -0.0208564 0.0138013 0.027598 -0.022472 -0.0134796 0.00357246 0.0737176 0.0348118 0.0432343 -0.0249951 0.00255953 0.0516639 -0.0119497 -0.0348925 -0.0426341 0.0429388 0.0276546 0.0159545 -0.0348144
internal_weight=0 37038.8 26766.9 15372.2 7125.48 10271.9 11394.7 13376.4 3546.2 8590.19 3182.89 10261.7 6728.84 1995.82 6725.7 6727.11 1787.48 2817.79 4307.68 1861.35 6349.78 363.314 947.894 2804.48 3534.59 2428.35 2952.32 2757.85 1455.94 2941.85
internal_count=1816051 1752045 1033719 684505 64006 718326 349214 632314 324097 248612 311377 539140 205238 52191 394229 315795 58142 16104 47902 43374 381704 12720 7585 100602 223345 158320 29927 70530 43159 217170
is_linear=0
shrinkage=0.1


Tree=10
num_leaves=31
num_cat=0
split_feature=133 54 127 122 128 49 50 102 125 48 13 132 74 125 62 14 123 13 49 14 15 13 86 133 17 128 103 2 47 13
split_gain=1727.39 740.99 270.244 192.401 172.614 130.2 115.977 139.188 107.863 107.544 106.919 93.4491 92.4189 88.6687 83.9529 88.6029 102.858 81.5252 80.1969 72.9158 64.8098 59.9841 55.37 54.1703 73.8268 50.8181 50.0181 48.8306 48.8263 43.2628
threshold=9.0000000000000018 0.0069455000000000012 286.50000000000006 -24.395996499999995 2.5000000000000004 0.048277500000000008 1.0000000180025095e-35 0.78287050000000014 1.5000000000000002 0.24695100000000003 4.5000000000000009 1.5000000000000002 177.08769800000002 1.5000000000000002 0.044744500000000006 31.500000000000004 -2.5893214999999996 4.5000000000000009 0.030929500000000002 38.500000000000007 9.0599955000000012 6.5000000000000009 16.135956000000004 839.00000000000011 12.974370500000001 1.0000000180025095e-35 0.7954920000000002 2.5000000000000004 0.18230700000000002 4.5000000000000009
decision_type=2 2 2 2 2 2 2 2 2 2 2 2 2 2 2 2 2 2 2 2 2 2 2 2 2 2 2 2 2 2
left_child=1 3 4 18 5 -3 14 26 20 13 23 12 -10 -4 15 -5 -17 -7 19 -1 -6 22 -15 24 -2 -18 -8 -19 -9 -13
right_child=10 2 9 6 8 17 7 28 11 -11 -12 29 -14 21 -16 16 25 27 -20 -21 -22 -23 -24 -25 -26 -27 -28 -29 -30 -31
leaf_value=0.010329887797208823 0.016367549537093889 -0.025081170547195965 0.12011369470021778 0.0011478395437726067 0.0263122688979745 0.013121122096403702 -0.05956008709351869 -0.050461377710164436 0.0087123419160299639 0.057359108729678837 0.03943414335304106 0.052266834858460093 0.067698272142989444 0.022305879212748909 7.2407144056756893e-05 -0.050174033725366697 -0.040497524593161721 -0.014660648430213889 -0.034802608535231198 -0.077349977784662863 0.086588072620757184 0.0020196292533257998 0.079111111322926309 0.081132207851811522 0.069501103561453392 -0.0011395324608846329 0.002249893633988679 0.0054353434541461118 -0.01289798182561841 -0.0013458747312531981
leaf_weight=104.23017037962563 394.335707671009 3538.7717743362882 83.09549584670458 1240.3702771964599 616.99162845464889 2454.9741583146388 1595.628194074292 405.52448019443545 661.34344569395762 881.18744776060339 3010.2576537984423 155.2240057347808 444.37673401169013 1464.7986052134656 3253.6946715058293 1416.1691773098719 468.81029386413866 4035.586802815611 1673.0608975536597 1029.2504800713214 251.39777250227053 1644.4701892807498 194.52234984561801 1341.0208196169697 779.89394730445929 1094.027814943518 142.27635169017594 1725.4305134435417 2368.7716810827842 4858.6758324855473
leaf_count=3970 4240 192668 1628 42360 14394 64712 151896 31425 22345 16199 29698 2252 6438 39694 125554 137798 33844 191304 109338 132153 3179 71782 2652 6839 5180 36296 9456 48659 95384 183686
internal_value=0 -0.007699 0.00352571 -0.0251613 -0.00164526 -0.00904499 -0.0196406 -0.0323014 0.0108006 0.0262353 0.0521599 0.00611826 0.0324312 0.0181332 -0.0119945 -0.0213018 -0.0306523 -0.00213649 -0.0487319 -0.0692783 0.0437815 0.0155617 0.0289756 0.067384 0.051669 -0.0129541 -0.0544943 -0.00864015 -0.0183939 0.000312922
internal_weight=0 37802.7 23010.8 14791.8 18742.8 11754.8 11985.3 4512.2 6988.01 4268.07 5525.51 6119.62 1105.72 3386.89 7473.07 4219.38 2979.01 8215.99 2806.54 1133.48 868.389 3303.79 1659.32 2515.25 1174.23 1562.84 1737.9 5761.02 2774.3 5013.9
internal_count=1817023 1771066 861592 909474 729637 497343 664013 288161 232294 131955 45957 214721 28783 115756 375852 250298 207938 304675 245461 136123 17573 114128 42346 16259 9420 70140 161352 239963 126809 185938
is_linear=0
shrinkage=0.1


Tree=11
num_leaves=31
num_cat=0
split_feature=133 54 129 134 122 74 109 129 126 128 132 127 14 64 129 15 122 130 133 24 132 2 49 130 109 134 14 134 104 103
split_gain=1453.61 655.516 285.215 224.647 187.179 171.182 150.801 117.333 104.841 91.9039 91.6086 77.375 77.1661 93.4512 76.9261 70.5031 65.8376 62.4149 62.2362 58.4377 57.8668 56.2161 56.1404 52.0959 53.5313 48.479 44.7289 44.2691 43.6028 41.9145
threshold=1.0000000180025095e-35 0.0075415000000000005 61205.000000000007 177.00000000000003 -23.300801499999995 120.98170550000002 29.878407000000003 63589.000000000007 28.500000000000004 2.5000000000000004 1.5000000000000002 1216.5000000000002 22.500000000000004 0.0062195000000000002 129073.00000000001 8.7322465000000022 -10.355786499999999 127497.00000000001 251.00000000000003 15.500000000000002 23.500000000000004 2.5000000000000004 0.013433500000000003 131065.00000000001 48.710225250000008 5.0000000000000009 252.50000000000003 1.0000000180025095e-35 0.78410350000000018 0.78405150000000012
decision_type=2 2 2 2 2 2 2 2 2 2 2 2 2 2 2 2 2 2 2 2 2 2 2 2 2 2 2 2 2 2
left_child=1 4 5 25 12 8 11 9 20 22 17 -4 -1 -14 23 27 -11 -7 -5 -10 -3 -12 -6 24 -8 -2 -17 -9 -15 -28
right_child=3 2 6 18 7 10 14 15 19 16 21 -13 13 28 -16 26 -18 -19 -20 -21 -22 -23 -24 -25 -26 -27 29 -29 -30 -31
leaf_value=0.018943781214464481 0.014147332316272311 0.011078192034873506 -0.0016185285864966437 0.039681094499865295 -0.04753869233483822 -0.0086586902555561406 0.018826919071182533 -0.0050859819823533409 -0.030828703774087071 -0.02899155290812494 -0.0046557296085586479 0.029338395524764412 -0.078713255250422443 -0.052755836750902486 0.083875327413055339 0.028076233765064147 0.00039247964479299872 0.053703201389581547 0.075040996405577237 -0.011240441669812187 -0.021604472513888466 0.017992874240067101 -0.02549704759987232 0.081392515602705273 0.053214915777392471 0.036692948337772952 -0.008377394082038565 -0.041212132290913354 -0.022852495670922141 0.051876396332166709
leaf_weight=168.10881939972751 1533.8446520356229 2071.4243454955867 2839.923170476337 674.34025819203816 1848.5088589498628 211.58741021400783 1805.8080016868771 786.51088219854864 2984.8301911567105 1306.826740557648 3104.5087384030921 1127.7206472024554 838.6083909359877 1047.0304621645191 314.29307614918798 744.59734748135088 1828.9499686194176 660.76499170740135 1920.575943633914 3114.5405383153702 733.40767158305971 1693.4306355313165 3093.667318714899 193.68574822321534 604.95675245509483 2530.2530782623217 1195.8491108001617 597.34647995469277 916.09800844662823 127.66932347050169
leaf_count=5040 21327 61448 123706 6230 162762 8589 64026 51910 190766 79675 116439 32821 120764 81136 6652 21316 66836 9392 9906 129410 28591 38032 164364 2686 14270 26529 56851 47439 63635 4475
internal_value=0 -0.00799463 0.00310271 0.042869 -0.0244202 -0.00482105 0.019874 -0.0186521 -0.0134699 -0.0252467 0.00875864 0.00717833 -0.0468091 -0.0507585 0.0371278 -0.00321695 -0.0118506 0.0385667 0.0658578 -0.0208283 0.0025283 0.00333621 -0.033744 0.0314797 0.0274622 0.028187 0.0084699 -0.020689 -0.0388083 -0.00255415
internal_weight=0 35960.7 21460.9 6659.01 14499.8 14574.5 6886.39 11529.9 8904.2 8077.95 5670.29 3967.64 2969.85 2801.74 2918.74 3451.97 3135.78 872.352 2594.92 6099.37 2804.83 4797.94 4942.18 2604.45 2410.76 4064.1 2068.12 1383.86 1963.13 1323.52
internal_count=1817023 1753031 826828 63992 926203 582667 244161 655628 410215 473637 172452 156527 270575 265535 87634 181991 146511 17981 16136 320176 90039 154471 327126 80982 78296 47856 82642 99349 144771 61326
is_linear=0
shrinkage=0.1


Tree=12
num_leaves=31
num_cat=0
split_feature=133 54 127 13 127 134 122 128 107 107 10 13 125 108 64 128 48 125 130 73 13 71 13 73 10 13 71 125 24 132
split_gain=1222.14 588.604 209.36 162.596 172.231 147.852 146.344 138.144 136.82 122.089 118.743 92.3782 91.3683 88.4271 86.6367 85.0977 66.2343 60.8866 60.8049 65.3178 55.7642 63.0493 54.5865 53.1771 48.6836 48.41 47.3542 47.2978 45.6266 44.2781
threshold=15.000000000000002 0.0069455000000000012 286.50000000000006 4.5000000000000009 1.0000000180025095e-35 85.000000000000014 -10.355786499999999 5.5000000000000009 31.306589250000002 27.813933750000004 10.500000000000002 6.5000000000000009 2.5000000000000004 19.872895500000002 0.0043645000000000012 1.5000000000000002 0.27888900000000011 1.5000000000000002 66625.000000000015 7.5653265000000012 4.5000000000000009 16.219335500000003 4.5000000000000009 11.376547000000002 605.50000000000011 4.5000000000000009 16.219335500000003 1.5000000000000002 11.500000000000002 2.5000000000000004
decision_type=2 2 2 2 2 2 2 2 2 2 2 2 2 2 2 2 2 2 2 2 2 2 2 2 2 2 2 2 2 2
left_child=1 3 7 4 23 -2 9 8 12 10 -5 -9 18 17 -12 -8 -13 -4 25 -20 -19 -22 -10 24 -1 -3 -16 -17 -29 -18
right_child=5 2 13 6 -6 -7 15 11 22 -11 14 16 -14 -15 26 27 29 20 19 -21 21 -23 -24 -25 -26 -27 -28 28 -30 -31
leaf_value=-0.0067040662234171215 0.027695038098290103 -0.0030387117583597781 0.096007513448352233 0.003289835641395877 0.052872146889740894 0.062730386558560433 -0.028797589533026198 0.034751250771307335 0.031977035559910841 -0.0094411679521439092 -0.074260440824411841 -0.0019546005492267577 -0.026092250303007561 0.046403261609493734 -0.04422720380218282 0.068162821226846179 0.07607037404316272 0.038473067294322802 -0.009659671428956542 0.026360377525114498 -0.0037823557856775688 0.03217080844587699 0.0032999147307230959 0.08799356921977218 -0.045540585833981323 -0.024709867600312574 -0.0028535132685411375 -0.015310093547910015 0.01184459538325554 0.01437980492205378
leaf_weight=1482.9398420582293 2185.0128229705151 2388.8713933723629 89.269828385789879 503.05625103757484 509.16135564434808 2688.6964308270253 2095.4229922738887 1459.7961919202935 820.35475345863961 1344.1760130344774 985.13906977768056 2650.757615706767 3324.0953222197713 1193.1062344750389 3783.2453739251941 92.96898239350412 188.28085648547858 647.79703456140123 985.34354748087935 1028.6096911175409 1870.7801037371391 659.51494096487295 3481.6096668802202 51.196700238855556 412.82425663890899 1814.7456964476733 299.03609145068913 1540.1976415668178 1033.81880321278 305.78664895112161
leaf_count=81196 25234 84304 1499 18157 19600 16988 138196 33421 12365 48246 146368 101000 203207 24027 307092 2138 2149 11053 51122 36456 80101 15754 99526 966 32414 101042 17233 68429 30387 7353
internal_value=0 -0.00624218 0.00365857 -0.0222911 0.00109205 0.0470261 -0.0272103 -0.00104161 -0.00603281 -0.0365018 -0.0430295 0.0139619 -0.0127085 0.0231001 -0.0476297 -0.0137171 0.00430771 0.0145865 -0.00555126 0.0087327 0.0122933 0.00558569 0.00877138 -0.0124462 -0.0151684 -0.0123971 -0.0411991 -0.00186417 -0.00439986 0.0379199
internal_weight=0 37041.9 22908.7 14133.2 2456.12 4873.71 11677.1 18448.3 13843.6 6914.65 5570.48 4604.62 9541.67 4460.47 5067.42 4762.41 3144.83 3267.36 6217.57 2013.95 3178.09 2530.3 4301.96 1946.96 1895.76 4203.62 4082.28 2666.99 2574.02 494.068
internal_count=1817023 1774801 864379 910422 134176 42222 776246 731945 588022 537096 488850 143923 476131 132434 470693 239150 110502 108407 272924 87578 106908 95855 111891 114576 113610 185346 324325 100954 98816 9502
is_linear=0
shrinkage=0.1


Tree=13
num_leaves=31
num_cat=0
split_feature=133 54 129 134 126 7 109 74 127 100 122 125 130 129 132 48 10 10 107 133 81 107 130 126 132 107 49 134 107 5
split_gain=1025.25 516.784 230.766 184.12 164.873 142.709 139.087 118.305 106.668 94.2393 76.2965 73.804 69.3417 69.002 59.426 63.1014 56.0349 52.9204 52.6175 49.271 48.9947 46.6997 46.7573 45.9781 45.6079 42.8958 38.121 37.8019 37.7783 36.7058
threshold=1.0000000180025095e-35 0.0081320000000000021 46309.000000000007 373.00000000000006 30.500000000000004 0.43650750000000005 31.911580500000003 69.796658500000021 64.500000000000014 0.076854500000000006 -10.355786499999999 2.5000000000000004 92710.000000000015 123973.00000000001 33.500000000000007 0.24695100000000003 611.50000000000011 560.50000000000011 31.306589250000002 299.00000000000006 33.964701000000005 40.836661500000005 131065.00000000001 33.500000000000007 5.5000000000000009 24.944003250000005 0.050605000000000004 13.000000000000002 25.080982500000005 0.88194450000000013
decision_type=2 2 2 2 2 2 2 2 2 2 2 2 2 2 2 2 2 2 2 2 2 2 2 2 2 2 2 2 2 2
left_child=1 4 7 18 8 9 12 11 16 -6 25 24 -4 21 15 23 29 -10 27 -5 26 22 -8 -9 -3 -7 -14 -2 -18 -1
right_child=3 2 6 19 5 10 13 14 17 -11 -12 -13 20 -15 -16 -17 28 -19 -20 -21 -22 -23 -24 -25 -26 -27 -28 -29 -30 -31
leaf_value=0.00044129370529711958 0.0058501448099843277 0.012206703524175491 -0.00590331184414521 0.033569194196093187 -0.024670547058386103 -0.039325142024537685 0.015940802283283515 0.016893024841567742 0.037081340585028384 -0.054369999953026951 -0.0041020264634302602 -0.031689525697456825 0.00086413791219851373 0.063977049727503996 -0.012003236283745215 0.028002317336265282 -0.048293408102948521 -0.0088326549630060383 0.041874913661730323 0.071281633926495794 0.069980404070780822 0.060528702574046467 0.065599065176427773 -0.004490903483422873 -0.015424617691316929 -0.01581565224459441 0.027423242472024614 0.028321452397063487 0.00082883582462609277 -0.02716019141499626
leaf_weight=1837.8066871929332 1363.1644207702484 874.61289022112032 2413.3693734771223 452.87896281247959 1831.0804086714343 1618.4204793046229 1998.431589279091 1480.1749010101194 732.31783223652747 2571.4456390931155 2328.3524194711063 2057.3343271633494 1077.2812923576566 588.960100356373 2074.3049009450478 1212.8476014072075 649.40779743884923 381.42618806537939 1363.8739073225297 1493.8827085578814 169.89199805771932 339.32379471941385 209.61320961569436 3133.7593983428669 1882.1808510447736 1495.3498868764727 1085.9895975557156 1664.157654360868 205.75789989333134 652.56355636901571
leaf_count=90628 19972 37928 102548 4395 116561 124585 70195 41543 28701 293781 98344 126988 46955 13105 72305 27255 61766 22158 14317 7684 2568 6026 3042 131286 85751 57575 38186 17624 7304 45947
internal_value=0 -0.00680481 0.00333491 0.0369144 -0.0214069 -0.0286328 0.016778 -0.00499846 -0.00545201 -0.0420206 -0.0178 -0.0173559 0.00597766 0.0331193 0.00252978 0.00770529 -0.0143775 0.0213487 0.025561 0.0625158 0.0182711 0.0259788 0.0206622 0.00236723 -0.00665463 -0.0280391 0.0142024 0.0182067 -0.0364639 -0.00678804
internal_weight=0 34902 20598.1 6337.96 14303.9 9844.65 7882.86 12715.2 4459.28 4402.53 5442.12 4814.13 4746.53 3136.33 7901.09 5826.78 3345.54 1113.74 4391.2 1946.76 2333.16 2547.37 2208.04 4613.93 2756.79 3113.77 2163.27 3027.32 855.166 2490.37
internal_count=1817023 1753031 805681 63992 947350 690846 282625 523056 256504 410342 280504 250667 190257 92368 272389 200084 205645 50859 51913 12079 87709 79263 73237 172829 123679 182160 85141 37596 69070 136575
is_linear=0
shrinkage=0.1


Tree=14
num_leaves=31
num_cat=0
split_feature=133 64 126 106 122 52 132 126 108 132 127 24 127 108 100 107 107 108 107 132 125 131 107 114 109 10 48 109 126 133
split_gain=866.788 479.628 209.325 222.659 132.99 117.852 111.615 85.2673 82.3614 79.3046 76.4954 74.9511 58.8611 58.8398 55.9416 52.8085 48.8068 45.8147 45.3789 45.2801 47.0427 41.8101 51.6739 49.6314 40.8002 43.9394 36.923 35.6272 33.7437 33.609
threshold=31.000000000000004 0.012708500000000003 27.500000000000004 19.232262750000004 -25.165237999999999 0.064725500000000019 5.5000000000000009 20.500000000000004 22.632789750000004 1.5000000000000002 1.0000000180025095e-35 46.500000000000007 779.50000000000011 18.141429000000006 0.32860650000000008 26.583081000000004 33.35079600000001 25.549100250000006 23.578566750000004 10.500000000000002 2.5000000000000004 43.000000000000007 33.074893500000009 -4.5804739999999997 38.034082500000004 337.50000000000006 0.16064500000000001 33.465831000000001 26.500000000000004 1017.0000000000001
decision_type=2 2 2 2 2 2 2 2 2 2 2 2 2 2 2 2 2 2 2 2 2 2 2 2 2 2 2 2 2 2
left_child=1 4 6 5 24 14 13 27 12 26 16 19 21 15 -4 -3 17 -8 -16 20 -7 22 23 -6 25 -1 -5 29 -14 -2
right_child=7 2 3 9 8 11 10 -9 -10 -11 -12 -13 28 -15 18 -17 -18 -19 -20 -21 -22 -23 -24 -25 -26 -27 -28 -29 -30 -31
leaf_value=-0.027690352892421374 0.024768542650182176 0.013733925839388407 -0.0033142156622576707 0.017963989265461004 -0.039551081896917945 0.012009305708881736 -0.011405527269436411 0.031297067370985275 0.016706050197167064 0.011304871894272287 0.022523616859191273 0.014389464533044153 0.030120528790947662 0.054689793870836834 -0.032633229259369671 0.047453781947450271 0.02426744060608994 0.034153383726640882 -0.012529271860386444 -0.018630583504047917 -0.0089828621562805279 -0.011269857518867259 0.0047198425953326288 -0.015004041444890235 -0.029368222866086743 -0.077099648432242623 0.066608388712810454 0.078899118429850243 -0.011895488441625921 0.062313837395281339
leaf_weight=241.87741764646489 371.26410351786762 1876.3401861600578 1559.4742032478098 241.68484860367607 3314.243726253655 1672.2935952331172 2769.4294018328656 2478.379546236014 579.96839422243647 2638.3771519723232 1809.6282302932814 2130.0072358394391 286.0269980073499 712.71034543693531 3007.4359729432326 617.87263092503417 564.47567957593128 239.65873005799949 1795.0762825375423 2271.9709084698115 2951.0003475130652 1506.8932438071934 385.28616714314558 1098.2704361009237 503.4513238017098 713.23519161417789 444.06492176104803 647.33019662299193 575.50307481136406 672.70232733059675
leaf_count=21744 3535 61590 61002 5992 306595 72047 110459 25813 21661 77371 43887 59677 12348 13351 226770 9789 9684 5144 66704 105592 142293 92864 14417 45707 46520 103030 4747 3453 39195 4042
internal_value=0 -0.0050059 0.00164929 -0.00428317 -0.0247462 -0.00935382 0.0145727 0.0431207 -0.0195279 0.0191853 0.00577213 -0.00200479 -0.0224619 0.0293417 -0.0197776 0.0220927 -0.0027083 -0.00777265 -0.0251213 -0.0070707 -0.00138752 -0.0258122 -0.0303772 -0.0334441 -0.0524499 -0.0646017 0.0494839 0.0604381 0.00204405 0.0489749
internal_weight=0 36506.3 27301.5 18711.4 9204.76 15387.3 8590.12 4169.68 7746.19 3324.13 5383.19 9025.27 7166.22 3206.92 6361.99 2494.21 3573.56 3009.09 4802.51 6895.26 4623.29 6304.69 4797.8 4412.51 1458.56 955.113 685.75 1691.3 861.53 1043.97
internal_count=1817023 1780180 1076099 822195 704081 734085 253904 36843 532787 88110 169174 379609 511126 84730 354476 71379 125287 115603 293474 319932 214340 459583 366719 352302 171294 124774 10739 11030 51543 7577
is_linear=0
shrinkage=0.1


Tree=15
num_leaves=31
num_cat=0
split_feature=129 29 108 107 134 129 46 122 71 134 128 13 64 92 69 14 13 50 108 107 108 126 14 126 113 127 129 13 20 63
split_gain=696.199 399.632 313.771 240.049 123.058 119.48 116.177 109.84 89.8699 82.345 74.4286 72.0603 68.3623 66.426 65.8358 63.8523 62.4738 57.8721 52.3181 50.5849 48.2774 47.2053 46.5118 41.1517 40.9711 39.7709 37.0986 35.498 35.1384 34.4911
threshold=61205.000000000007 3.5000000000000004 19.598149500000002 24.188761500000005 397.00000000000006 123973.00000000001 0.67156900000000019 -10.355786499999999 11.271371 201.00000000000003 2.5000000000000004 3.5000000000000004 0.0082645000000000027 1.0000000180025095e-35 2.5000000000000002e-06 471.50000000000006 6.5000000000000009 0.005876000000000001 25.369139250000003 42.584639250000002 25.242669750000001 18.500000000000004 136.50000000000003 24.500000000000004 -3.1498824999999995 12.500000000000002 130343.00000000001 4.5000000000000009 43.500000000000007 0.15849300000000002
decision_type=2 2 2 2 2 2 2 2 2 2 2 2 2 2 2 2 2 2 2 2 2 2 2 2 2 2 2 2 2 2
left_child=1 7 3 4 8 18 10 12 15 19 11 -3 22 24 -13 26 -12 -17 -4 -5 28 -7 -1 -20 -9 -16 -2 -14 -18 -10
right_child=2 6 5 9 -6 21 -8 13 29 -11 16 14 27 -15 25 17 20 -19 23 -21 -22 -23 -24 -25 -26 -27 -28 -29 -30 -31
leaf_value=-0.014460297151083193 -0.0036877471434369835 0.036456317956634753 0.016408103996609108 0.02199818108678948 0.028177179887778014 0.10094396547419045 0.030394842136230879 -0.039462147835020001 0.017318055455027109 0.070220473422809501 0.023159551060854933 -0.022269625213095976 -0.0015074560935058377 -0.0020017589311020771 -0.0089496041563784986 -0.03994068189437637 -0.01211726915391325 -0.0059271556102308449 0.081048597369154832 0.068094650376076885 0.020734358113014821 0.05569785483478798 -0.057281321463971226 0.034434712832381649 -0.013535470279722406 0.011822745218856696 0.02535264120925107 -0.029644587304816547 0.010638223477558186 0.068289537588436297
leaf_weight=308.52859663986601 3874.2189239836007 344.3366319029592 897.48508039506851 2031.9341940071899 1535.8351142418105 450.01018755242694 1235.4514217709075 1085.1409008756018 756.52983881096588 558.89828270021826 1670.6947936369688 2821.1960141189047 508.2320299752173 2598.6710691627814 3049.8504831120663 944.93410975733423 2298.0724702258012 1064.5726531245164 297.94413832447026 269.92659862886649 902.61138878762722 477.13059759751195 1445.6838762467232 523.90115430031437 1394.6780447100173 1320.5358640113845 496.13136302315979 3856.4395231147209 962.41039284109138 161.24165877373889
leaf_count=20802 181659 7200 24238 53972 39394 3096 26972 95804 29343 5112 41788 155156 23631 99219 121821 88363 109331 46112 3007 3794 20581 8137 188553 11045 62927 48173 18642 248015 28272 2231
internal_value=0 -0.00984026 0.0176422 0.0106042 0.00244942 0.0487363 0.00105603 -0.0240535 -0.0029641 0.03578 -0.00165453 -0.00821981 -0.0330776 -0.0131783 -0.0103608 -0.00717442 0.00682458 -0.0219276 0.03312 0.0274107 0.000266374 0.0776785 -0.049757 0.0513536 -0.0248859 -0.00267071 -0.000388228 -0.0263706 -0.00539725 0.0262905
internal_weight=0 25802.5 14340.7 11694.2 8833.46 2646.47 14605.2 11197.4 7297.63 2860.76 13369.7 7535.92 6118.88 5078.49 7191.58 6379.86 5833.79 2009.51 1719.33 2301.86 4163.09 927.141 1754.21 821.845 2479.82 4370.39 4370.35 4364.67 3260.48 917.771
internal_count=1816390 1298245 518145 468622 405744 49523 559294 738951 366350 62878 532322 332350 481001 257950 325150 334776 199972 134475 38290 57766 158184 11233 209355 14052 158731 169994 200301 271646 137603 31574
is_linear=0
shrinkage=0.1


Tree=16
num_leaves=31
num_cat=0
split_feature=133 52 63 129 134 36 13 125 74 125 72 130 14 100 62 128 16 47 134 24 114 130 88 17 129 73 125 115 15 129
split_gain=703.711 384.03 187.936 139.219 132.221 124.641 119.217 129.073 114.474 86.8332 84.263 82.8138 78.2335 69.4599 97.5048 66.5969 60.6026 59.6145 52.1917 50.9789 43.9572 39.6613 39.1906 37.3934 35.6317 46.4998 35.4713 34.0104 32.4865 31.5447
threshold=5.0000000000000009 0.064725500000000019 0.11602600000000002 123973.00000000001 847.00000000000011 0.77500000000000013 4.5000000000000009 1.5000000000000002 155.57635750000003 2.5000000000000004 8.0930975000000025 127086.00000000001 2419.5000000000005 0.27270100000000003 0.049884500000000005 9.5000000000000018 18.519989000000006 0.19953700000000005 17.000000000000004 14.500000000000002 -34.422039999999988 69351.000000000015 3.9879615000000004 15.865695000000001 125263.00000000001 8.4682405000000021 1.5000000000000002 -10.9637935 10.206590500000003 130667.00000000001
decision_type=2 2 2 2 2 2 2 2 2 2 2 2 2 2 2 2 2 2 2 2 2 2 2 2 2 2 2 2 2 2
left_child=1 2 5 8 18 6 7 28 9 16 -5 27 13 20 -15 -13 21 -17 -2 -11 -8 -3 -23 -20 -4 -26 -18 -10 -1 -12
right_child=4 3 24 10 -6 -7 12 -9 11 19 29 15 -14 14 -16 17 26 -19 23 -21 -22 22 -24 -25 25 -27 -28 -29 -30 -31
leaf_value=-0.027201779562618097 0.011721897573119347 -0.0076809098952409895 0.0088849910391819407 -0.0047025341091432322 0.062653748610661406 0.017487684559582353 -0.088229834667731988 0.032483790958605069 0.020651842326125953 -0.027578525056959843 0.037167883476400841 -0.025679142655646692 -0.066040046893594759 -0.046252291704230328 -0.021837931412688215 0.0066522168151382371 0.043879952019432046 0.067301304575951584 0.024130559999977864 -0.0057241768764118364 -0.01174048645598509 -0.007311196996425906 0.024862176580251798 0.0504653047107552 -0.0083704807757632952 0.072171291105070839 0.01152916201016394 0.00069972025220427182 -0.0022207135318664624 0.075697557266330456
leaf_weight=1130.0637340657559 1614.9641055304091 3148.6932277194574 1373.8903546795482 457.65483811491868 1269.3568653538823 878.96022515516961 76.581641954777297 756.84595675283344 1424.9264079786371 1651.328373369528 1023.0708078976022 127.77028693887405 461.67074396149837 2409.8686400812148 5103.3820966371277 218.69384289439768 484.20091910543852 630.33004582731519 1264.6161040335428 3022.7049149650265 3841.0974339443492 637.33470502350247 931.02884617261589 943.43621054152027 106.40276703319978 218.13023094227538 1134.0104785049916 2136.092773590819 966.889414488076 269.27516816719435
leaf_count=82891 21808 128663 58724 16911 7734 36459 10679 27484 33761 112094 27651 3777 62518 277674 301098 4036 9448 6449 13357 120845 206594 31529 34511 7654 4322 4054 36834 75166 46510 5155
internal_value=0 -0.00512872 -0.0156528 0.00541102 0.0346849 -0.019087 -0.0212678 -0.00290879 0.00240031 -0.00310795 0.032151 0.015766 -0.0256724 -0.0240406 -0.0296707 0.0415609 0.00451913 0.0516936 0.0253944 -0.0134478 -0.0132404 -0.00120753 0.0117819 0.0353889 0.0159352 0.0457393 0.0212175 0.00868664 -0.0156886 0.045209
internal_weight=0 34620.9 17323.8 17297.1 5092.37 15625.4 14746.4 2853.8 15547.1 11009.3 1750 4537.81 11892.6 11430.9 7513.25 976.794 6335.27 849.024 3823.02 4674.03 3917.68 4717.06 1568.36 2208.05 1698.42 324.533 1618.21 3561.02 2096.95 1292.35
internal_count=1816390 1765837 1119007 646830 50553 1051907 1015448 156885 597113 473924 49717 123189 858563 796045 578772 14262 240985 10485 42819 232939 217273 194703 66040 21011 67100 8376 46282 108927 129401 32806
is_linear=0
shrinkage=0.1


Tree=17
num_leaves=31
num_cat=0
split_feature=133 54 132 134 126 48 128 14 6 107 127 49 122 13 127 133 13 107 13 132 126 14 128 64 109 108 106 107 58 130
split_gain=592.946 346.571 139.756 139.412 121.905 120.481 101.735 94.1736 79.9229 70.3073 70.0356 68.2386 62.6484 55.4468 54.8905 49.8506 45.452 43.7133 42.3115 41.5849 39.6636 38.7342 37.7246 36.8278 36.3207 35.8161 34.5387 32.4253 31.9962 31.4699
threshold=1.0000000180025095e-35 0.0060800000000000012 5.5000000000000009 195.00000000000003 30.500000000000004 0.15587050000000005 11.500000000000002 574.50000000000011 0.37980750000000002 17.395275000000002 1.5000000000000002 0.044401000000000003 -11.449204499999999 6.5000000000000009 62.500000000000007 657.00000000000011 7.5000000000000009 23.208212250000003 4.5000000000000009 36.500000000000007 18.500000000000004 31.500000000000004 1.5000000000000002 0.0031725000000000004 48.350102250000006 25.242669750000001 21.844543500000004 30.885255750000002 0.22649550000000004 128405.00000000001
decision_type=2 2 2 2 2 2 2 2 2 2 2 2 2 2 2 2 2 2 2 2 2 2 2 2 2 2 2 2 2 2
left_child=1 4 5 24 7 9 20 10 12 26 25 28 17 -11 19 27 -8 21 -16 -13 -7 -6 -14 -23 -2 -1 -3 -5 -4 -15
right_child=3 2 11 15 8 6 16 -9 -10 13 -12 14 22 29 18 -17 -18 -19 -20 -21 -22 23 -24 -25 -26 -27 -28 -29 -30 -31
leaf_value=-0.0094352593569186106 0.012263711051888703 -0.013091409663522804 -0.021027445819386949 0.019195796095876051 -0.011027106763086134 0.045223933054945223 0.068168915988659498 -0.029315921955721441 0.00056082477268349468 0.028063779932957847 0.025464846613272071 0.0004588000218173262 -0.030705338802277649 -0.001854254406467638 0.039936704812276055 0.061760945885474011 0.027244240716458742 -0.020833627664705597 0.0061310764159228362 -0.016410281896034575 0.0084986473613825157 -0.072051111538253748 -0.0079745759403775686 -0.041996922979110153 0.035474682175876279 0.073165138123890708 0.044014659837278133 0.069637682598925305 0.017589793369613211 0.030990788120743597
leaf_weight=1714.4937636096438 2833.3516027906444 2221.5403836869809 2692.649093479733 610.06284603546374 324.64848630735651 350.37617554882308 663.86295704834629 1083.5844101174007 1014.3703285343945 1338.7189485513372 1074.4279314039013 4478.4494236512692 1335.710570230789 2093.2576073338278 458.87957728980109 1330.0880540460348 461.09609576314688 1161.875365513406 1921.0996609931462 2168.2671362762339 1836.2504367442452 503.46093265255331 1613.9113236512057 2178.7642303361645 885.79262021300383 54.031707533285953 111.04652636940591 161.41179164778441 232.77005815482698 338.77859131776495
leaf_count=102213 38261 136147 156546 6561 15501 7345 8097 90720 46973 36652 42000 174658 107173 102449 7409 8177 8803 56678 68952 88747 67070 96011 74439 236106 10063 1321 3690 1034 5918 10676
internal_value=0 -0.00515014 0.00249909 0.0294339 -0.018704 0.0116116 0.026969 -0.004231 -0.0256904 0.00327692 0.00532723 -0.00467822 -0.0294325 0.0117196 -0.000375505 0.050024 0.0514076 -0.0373261 0.0126547 -0.00504283 0.0143897 -0.0436947 -0.0182721 -0.0476444 0.0177954 -0.00690202 -0.0103667 0.0297701 -0.0179508 0.00271798
internal_weight=0 33426.3 21367 5820.71 12059.3 9414.93 3311.59 3926.54 8132.74 6103.34 2842.95 11952.1 7118.37 3770.76 9026.7 2101.56 1124.96 4168.75 2379.98 6646.72 2186.63 3006.87 2949.62 2682.23 3719.14 1768.53 2332.59 771.475 2925.42 2432.04
internal_count=1816390 1752294 883159 64096 869135 380929 91315 236254 632881 289614 145534 502230 585908 149777 339766 15772 16900 404296 76361 263405 74415 347618 181612 332117 48324 103534 139837 7595 162464 113125
is_linear=0
shrinkage=0.1


Tree=18
num_leaves=31
num_cat=0
split_feature=129 7 105 128 125 63 133 134 13 70 73 132 107 127 114 128 127 132 19 10 132 87 107 128 13 19 132 59 48 117
split_gain=517.48 333.722 177.826 103.472 113.955 102.918 91.5757 87.6986 82.0755 80.4513 74.4608 64.0293 59.9043 57.6693 57.5445 46.8476 46.6194 45.5523 43.6151 41.6958 41.6267 40.621 36.7401 36.3523 35.9535 35.7122 32.874 32.1524 31.9302 31.8829
threshold=109201.00000000001 0.76388900000000015 28.002639750000004 1.5000000000000002 1.5000000000000002 0.044543500000000007 1562.0000000000002 283.00000000000006 4.5000000000000009 195.43083300000004 8.8468740000000015 1.5000000000000002 35.544608250000003 1.0000000180025095e-35 -37.468369999999993 1.5000000000000002 6200.0000000000009 65.500000000000014 10.037220500000002 24.500000000000004 21.500000000000004 2.4270695000000004 40.836661500000005 9.5000000000000018 3.5000000000000004 16.553062500000003 32.500000000000007 0.02315 0.24695100000000003 -14.896647999999997
decision_type=2 2 2 2 2 2 2 2 2 2 2 2 2 2 2 2 2 2 2 2 2 2 2 2 2 2 2 2 2 2
left_child=1 5 6 12 18 8 10 20 13 29 16 -11 24 26 -10 19 -2 23 -5 -16 22 -21 28 -7 -3 -17 -1 -26 -4 -6
right_child=2 3 7 4 9 17 -8 -9 14 11 -12 -13 -14 -15 15 25 -18 -19 -20 21 -22 -23 -24 -25 27 -27 -28 -29 -30 -31
leaf_value=-0.002992917710239336 -0.0047185054130454047 0.0222529203869435 0.025490379227529072 0.031655586027025513 0.011011025697496631 -0.0055809688884112911 0.04833862122994402 0.071902898593796158 -0.07700738008494995 0.055096686252020133 0.035235488802237654 0.014002735192356452 0.0099650112927097481 0.032365784260032456 -0.0092001752652723975 -0.027186940395541953 0.02201476252307813 -0.029454806308219846 0.081920646445401812 -0.048860083794609092 -0.0031454627339332153 -0.026988858315055188 0.081522734925377316 0.019068192078086701 -0.025528789163067386 -0.0065199901423762755 -0.036491448469739285 -0.0074498759112980074 0.060769792244524161 -0.004228279586796827
leaf_weight=984.91386255630641 2951.9588150699565 337.03428044338943 1196.2472530017549 641.04822808451718 2178.7741891662881 3064.6352633722418 605.97055094502866 771.08287624648074 231.58348693403241 514.5764712349046 773.40145985828713 1444.6820634035394 2125.6127113117254 350.56232894014101 593.28735300706467 1816.9011081956851 837.20027737169585 647.66947561170673 236.95108216546942 1705.8447503791249 285.65508045937167 1698.2763407526363 174.88885462563485 743.31249937554821 1252.5669415116427 1551.8008266717952 417.36486769639305 4597.502941239276 327.47544374252902 3710.2447725730599
leaf_count=54825 143584 7463 40194 12779 65031 160141 4429 8010 34986 6559 21069 35509 56792 11703 32271 155332 29769 33201 2269 210383 9628 116563 1950 29519 76565 65218 32092 201392 4584 152580
internal_value=0 -0.00589452 0.0227555 0.00346795 0.0110741 -0.01745 0.0118145 0.0432739 -0.0234102 0.00725005 0.00696049 0.0248029 -0.0045154 -0.00389774 -0.0279104 -0.0263645 0.00118589 -0.0049394 0.0452401 -0.0336883 0.0321406 -0.0379528 0.0380804 -0.000766445 -0.00949192 -0.0176701 -0.0129722 -0.0113229 0.0330826 0.00140824
internal_weight=0 30845.1 7923.88 17039 8726.28 13806.2 5168.53 2755.35 9350.53 7848.28 4562.56 1959.26 8312.72 1752.84 7597.69 7366.11 3789.16 4455.62 877.999 3997.41 1984.27 3404.12 1698.61 3807.95 6187.1 3368.7 1402.28 5850.07 1523.72 5889.02
internal_count=1816390 1553173 263217 616939 274727 936234 198851 64366 713373 259679 194422 42068 342212 98620 614753 579767 173353 222861 15048 359217 56356 326946 46728 189660 285420 220550 86917 277957 44778 217611
is_linear=0
shrinkage=0.1


Tree=19
num_leaves=31
num_cat=0
split_feature=133 54 129 107 113 17 134 10 64 129 108 129 131 132 109 127 129 24 125 129 125 109 19 134 9 111 129 132 63 10
split_gain=470.685 281.535 149.031 147.89 123.847 119.298 103.284 82.6553 77.757 63.038 57.0864 55.1396 54.3064 50.0173 46.935 44.0426 43.6814 40.8274 56.328 40.5944 40.3242 36.1514 36.1513 34.9796 34.556 32.6208 30.8077 29.5737 28.6503 28.4778
threshold=35.000000000000007 0.011051000000000002 37243.000000000007 24.944003250000005 -14.360649499999999 11.983937500000001 23.000000000000004 83.500000000000014 0.0030310000000000003 123973.00000000001 22.632789750000004 531.00000000000011 35.000000000000007 10.500000000000002 32.581133250000008 1796.5000000000002 106991.00000000001 14.500000000000002 2.5000000000000004 129073.00000000001 1.5000000000000002 13.534659000000001 12.704422500000002 1673.0000000000002 0.68990400000000018 -1.1238989999999998 18597.000000000004 10.500000000000002 0.24404750000000003 1897.5000000000002
decision_type=2 2 2 2 2 2 2 2 2 2 2 2 2 2 2 2 2 2 2 2 2 2 2 2 2 2 2 2 2 2
left_child=1 3 11 4 7 19 -2 12 -9 22 15 -3 -1 16 23 24 -5 18 27 25 -16 -21 -7 -8 29 -4 -14 -13 -11 -6
right_child=6 2 5 13 10 9 14 8 -10 28 -12 17 26 -15 20 -17 -18 -19 -20 21 -22 -23 -24 -25 -26 -27 -28 -29 -30 -31
leaf_value=-0.038764238632324775 0.0072853470229566888 -0.019306107325426595 -0.0041043728205385896 0.0070715699324127293 -0.0090023941714447442 0.016854599379083485 0.020428183009007672 -0.071260693627060862 -0.030504416790206369 0.046449308574473908 0.026110031183358536 0.011957973593632159 -0.012450206182995225 -0.010090915043866042 0.075885972573313476 0.010873803129606447 0.04795388527761011 0.0046451047553945444 -0.028329076555767455 -0.0054193923217678904 0.038172521964285708 0.038158840275462187 0.048836858250428751 0.052414607320221289 -0.029741316526111866 0.037762352051344726 0.040323060796455486 -0.014268477673168526 0.11434406058333679 -0.053317084844776999
leaf_weight=224.41062718449393 1024.9663862918969 1790.490625380131 3302.0776103526587 2087.9496267631184 3706.3033751057665 2891.0668531500269 891.5993002075702 527.61329720976937 4183.9049611511873 708.72651519137435 416.30963031994179 1022.7917978215846 174.57447714946466 1741.2783319338341 664.1501686712727 724.14458867441863 298.84666758170351 5949.8739146346343 1048.6591146841529 293.3255734287668 497.85891227331012 540.16488023119746 403.1365499094245 556.3425218462944 1274.5632752597157 197.09683405980468 300.55362779315328 741.55756848305464 68.370824955403805 150.94401554077922
leaf_count=16135 14068 73054 145976 75748 199333 93765 9595 106508 371457 15224 16845 41719 10496 63824 3710 32277 6185 211856 76778 9861 4845 14055 8194 3780 123790 3547 9826 35782 404 17753
internal_value=0 -0.00362193 0.00459571 -0.0134752 -0.019224 0.0145316 0.0341966 -0.0303097 -0.035072 0.0268227 -0.00965858 -0.00331569 0.0017517 0.00279284 0.0447605 -0.0122035 0.0121964 -4.71e-05 -0.00997508 0.00297938 0.0597411 0.0228118 0.0207729 0.032728 -0.0154621 -0.00174229 0.0209132 0.000929122 0.0524497 -0.0107405
internal_weight=0 34768.7 18957.3 15811.4 11683.3 8403.97 3634.92 5411.06 4711.52 4071.3 6272.26 10553.4 699.539 4128.07 2609.95 5855.96 2386.8 8762.88 2813.01 4332.66 1162.01 833.49 3294.2 1447.94 5131.81 3499.17 475.128 1764.35 777.097 3857.25
internal_count=1816390 1780392 730215 1050177 904420 291026 35998 514422 477965 117587 389998 439189 36457 145757 21930 373153 81933 366135 154279 173439 8555 23916 101959 13375 340876 149523 20322 77501 15628 217086
is_linear=0
shrinkage=0.1


Tree=20
num_leaves=31
num_cat=0
split_feature=129 29 109 134 46 14 25 29 47 128 129 108 132 58 108 13 47 64 14 6 114 72 128 11 10 128 42 49 64 129
split_gain=411.791 266.08 199.903 112.472 106.48 70.5214 77.2418 69.902 68.0868 60.0552 57.1286 63.308 52.6575 51.7362 45.0371 42.7512 41.1313 35.4904 35.3809 34.7712 33.9197 33.7459 32.9508 32.7277 30.0903 28.4797 28.2379 28.0201 27.4482 27.1012
threshold=73837.000000000015 2.5000000000000004 29.396457750000003 335.00000000000006 0.67156900000000019 2115.5000000000005 1.0000000180025095e-35 1.5000000000000002 0.54006450000000006 2.5000000000000004 129401.00000000001 15.520903500000001 20.500000000000004 0.13961050000000005 25.369139250000003 3.5000000000000004 0.70294100000000015 0.028091000000000001 62.500000000000007 0.7321430000000001 -37.468369999999993 8.7166395000000012 1.5000000000000002 1.0000000180025095e-35 1036.5000000000002 27.500000000000004 0.65333350000000012 0.025371000000000001 0.0090365000000000011 129401.00000000001
decision_type=2 2 2 2 2 2 2 2 2 2 2 2 2 2 2 2 2 2 2 2 2 2 2 2 2 2 2 2 2 2
left_child=1 5 10 12 8 6 20 -8 9 15 17 21 14 -11 16 -3 19 18 -2 29 -1 -12 -20 -15 -6 -19 -5 -17 -22 -4
right_child=2 4 3 26 24 -7 7 -9 -10 13 11 -13 -14 23 -16 27 -18 25 22 -21 28 -23 -24 -25 -26 -27 -28 -29 -30 -31
leaf_value=-0.062953386035895856 0.016712707434839467 0.024202115083834953 0.010732193226083826 0.069335007446429786 0.019386850463515418 -0.064135454337149816 -0.045137390371079909 -0.015935871772850479 0.011127958588875293 -0.0041894096535557207 0.00013346717256461151 0.054535718938109767 -0.00054610437568664147 0.029515253628905665 0.055523135167335459 -0.029111362920891233 0.059784347948261311 0.0048239939064089951 -0.026131672184291285 0.048263560509238114 -0.018435961801950212 0.030974130270760111 -0.0025582068668011889 0.00093455813111658823 0.055899926889552046 0.046696865154866526 0.0077727902747359691 -0.010818405181605473 -0.0042122357215746619 0.045227734987201403
leaf_weight=127.6111052048218 463.76895721862093 311.85155933588976 1895.415572761558 774.24465099738154 1074.6364361901069 362.9070888251008 1732.1153831930278 1559.1485236145818 3080.1194644899806 3715.6053552278609 1104.739827367448 398.37102209351724 741.9565378476982 927.23458883166313 534.0011645956547 995.60482517915079 285.77016011916567 2364.1609800951555 1103.7127537554334 365.44496486661956 2528.0598254073993 522.999268570391 1283.5017217127897 706.75317191146314 286.33624249431887 174.41950318217278 82.880427390744444 5299.3843808041129 2933.1332084022433 259.10166431363905
leaf_count=18686 15238 7370 70798 7921 25440 58393 159255 101847 88624 163387 49385 5839 25138 25083 7856 81445 4287 85089 82255 8273 200259 12238 66045 20134 5235 3037 1642 266244 143169 6078
internal_value=0 -0.00735246 0.0148716 0.0304587 0.000295175 -0.0209207 -0.0191528 -0.0313079 -0.00212862 -0.00554458 0.00448907 0.018804 0.0235384 0.00232995 0.0288919 -0.0119221 0.023818 -0.000890777 -0.00854962 0.0197331 -0.0119924 0.0100501 -0.0134621 0.0171601 0.0270798 0.00770664 0.0633955 -0.0137136 -0.0107986 0.0148872
internal_weight=0 25640.5 12354.5 4938.82 16397.5 9242.98 8880.07 3291.26 15036.6 11956.4 7415.67 2026.11 4081.69 5349.59 3339.73 6606.84 2805.73 5389.56 2850.98 2519.96 5588.8 1627.74 2387.21 1633.99 1360.97 2538.58 857.125 6294.99 5461.19 2154.52
internal_count=1815690 1364571 451119 131993 682962 681609 623216 261102 652287 563663 319126 67462 122430 208604 97292 355059 89436 251664 163538 85149 362114 61623 148300 45217 30675 88126 9563 347689 343428 76876
is_linear=0
shrinkage=0.1


Tree=21
num_leaves=31
num_cat=0
split_feature=133 54 129 109 126 134 122 20 130 132 14 134 125 107 108 10 17 64 129 132 73 135 132 128 128 125 107 107 58 129
split_gain=367.744 236.378 138.602 102.885 86.3005 80.705 61.8981 58.7751 57.3354 55.826 51.7706 48.1637 47.7546 44.108 41.1726 41.0542 40.9301 38.1775 35.389 34.9211 34.8598 33.6068 31.2686 30.946 30.0495 31.2812 27.8758 27.7449 32.1818 27.7065
threshold=15.000000000000002 0.0051455000000000016 20023.000000000004 38.232972000000011 26.500000000000004 3170.0000000000005 -9.9798634999999987 12.500000000000002 89197.000000000015 5.5000000000000009 426.50000000000006 5.0000000000000009 2.5000000000000004 28.135654500000005 16.232080500000006 10.500000000000002 15.718825500000003 0.0026050000000000001 130667.00000000001 29.500000000000004 5.303220500000001 43.187191142191203 10.500000000000002 35.500000000000007 1.0000000180025095e-35 1.5000000000000002 38.477074500000008 40.289650500000008 0.21825400000000003 120303.00000000001
decision_type=2 2 2 2 2 2 2 2 2 2 2 2 2 2 2 2 2 2 2 2 2 2 2 2 2 2 2 2 2 2
left_child=1 4 7 8 10 11 13 12 -4 29 24 -2 22 15 -10 -6 -13 -17 -16 23 21 -8 -3 26 25 -1 -9 28 -11 -5
right_child=5 2 3 9 6 -7 20 19 14 27 -12 16 -14 -15 18 17 -18 -19 -20 -21 -22 -23 -24 -25 -26 -27 -28 -29 -30 -31
leaf_value=-0.012358150726144025 -0.00044714632643441405 0.0050065311828199621 -0.0046110533550613167 0.031232439511719303 -0.00057910318849390926 0.063370981859850947 -0.020906751586826897 -0.0017429365863477206 0.004747744075392954 0.0016503694026521029 -0.019174910067164194 0.018619073043899242 -0.03004681982760939 -0.0085951319068013742 0.020533178231055837 -0.062775660836521335 0.043618353261763464 -0.031754094458103725 0.072940044721350822 -0.011721929056243995 0.006190788564739591 0.013365991290051919 -0.02058382103865292 0.042308666010851967 0.026515554450949604 0.02042918038167181 0.016548628754595923 0.035309099910796213 0.053195301415784615 0.063823542236414246
leaf_weight=769.09398611550569 708.85533359320834 1085.3792983102903 4092.0001630968472 1290.3671009761165 367.24310518294806 571.07867965381593 2175.5289935320325 3983.2518689547724 2654.5537647432066 1364.385332141188 971.22444651799742 1609.9900166529696 1493.2307524401695 967.45090614532819 1291.8141321766307 455.71429062185052 1106.8679905158933 3112.5336803825485 143.28886068228167 2073.8740964081953 938.34458670648746 328.98940556248999 851.77301174373133 198.71957569551887 656.34558118780842 467.94449886848452 1053.2093054702273 420.78987301606685 132.88453923922498 328.16056774207391
leaf_count=45286 10485 48966 185679 39810 16975 3742 141942 167261 125325 50225 77334 18079 111880 40004 36564 95997 10040 317859 1771 80701 39220 14747 47960 4051 26027 17218 24472 8183 2118 5769
internal_value=0 -0.00352262 0.00239702 0.00991805 -0.0153822 0.0285601 -0.0205225 -0.00580856 0.00375599 0.0241702 -0.000402516 0.0227524 -0.016607 -0.0277403 0.0121302 -0.0324438 0.0288089 -0.0357204 0.0257775 -0.000738949 -0.0102403 -0.0164004 -0.00624096 0.0036101 0.00922214 3.71424e-05 0.00208041 0.0126201 0.00623497 0.0378501
internal_weight=0 33668.1 22457.7 11718.2 11210.4 3996.79 8345.8 10739.4 8181.66 3536.59 2864.61 3425.71 3430.38 4902.94 4089.66 3935.49 2716.86 3568.25 1435.1 7309.05 3442.86 2504.52 1937.15 5235.18 1893.38 1237.04 5036.46 1918.06 1497.27 1618.53
internal_count=1815690 1773344 940735 455444 832609 42346 666744 485291 349339 106105 165865 38604 208806 470835 163660 430831 28119 413856 38335 276485 195909 156689 96926 195784 88531 62504 191733 60526 52343 45579
is_linear=0
shrinkage=0.1


Tree=22
num_leaves=31
num_cat=0
split_feature=129 29 109 128 133 129 122 125 132 74 14 64 130 107 108 69 133 134 73 12 127 107 53 132 127 125 75 48 133 11
split_gain=327.559 231.83 161.377 90.0968 75.7459 75.7075 74.3809 72.2695 67.0688 77.2126 63.1401 61.9855 48.5982 48.2093 60.3576 47.9929 44.5472 45.9946 37.581 36.1444 35.5631 33.8968 33.7337 31.8605 30.8728 29.5179 29.1392 28.9225 28.8892 31.7622
threshold=109201.00000000001 3.5000000000000004 23.183130750000004 2.5000000000000004 1.0000000180025095e-35 129401.00000000001 -8.8126239999999978 1.5000000000000002 2.5000000000000004 204.53542850000002 31.500000000000004 0.0042025000000000005 131065.00000000001 35.259330750000011 26.851884750000007 2.5000000000000002e-06 1758.0000000000002 1.0000000180025095e-35 6.3273030000000015 6.5000000000000009 9.5000000000000018 28.135654500000005 0.24038450000000003 5.5000000000000009 1.0000000180025095e-35 2.5000000000000004 9.9734750000000023 0.27525250000000007 3.0000000000000004 1.0000000180025095e-35
decision_type=2 2 2 2 2 2 2 2 2 2 2 2 2 2 2 2 2 2 2 2 2 2 2 2 2 2 2 2 2 2
left_child=1 4 16 15 6 13 10 24 9 19 -1 -12 28 14 -4 23 17 -2 26 -9 25 -13 -7 -3 -5 -17 -8 -21 29 -10
right_child=2 3 5 7 -6 22 18 8 12 -11 11 21 -14 -15 -16 20 -18 -19 -20 27 -22 -23 -24 -25 -26 -27 -28 -29 -30 -31
leaf_value=0.0048074848504332784 0.011820383746496814 -0.0020499780733891975 0.012024616814289745 0.033308600764353276 0.013483317476569445 0.044837057527401518 -0.011934811414887551 0.023811070080449345 0.010339631412576218 0.048824510819928245 -0.056890845159539273 -0.029215110474392011 -0.035353755615647478 0.053166480377339433 0.065616258788058768 0.003500072686586394 0.037773908666568073 -0.011141969254045465 0.0041974945410226906 -0.016403520287798054 0.012430468244171116 -0.0099748461128969478 0.087394300653974827 -0.020826806183914921 0.097215342327631279 -0.015448582892163013 -0.048234425862647728 0.053382166497042444 0.023107477022917055 -0.0071229371108698161
leaf_weight=640.99867593630916 1695.2888437282527 1562.4248259518936 2126.3843665790628 600.01175465149572 849.01311815797817 980.08757042267825 3528.5289535560878 715.74288916296791 1917.4973559083301 731.10146757942857 668.69261755404295 3676.7321515365911 336.20786268817028 446.84283524239436 233.26187445130199 1973.0334370037017 342.87006301712245 1796.7207059850625 1570.0057728253887 562.99894737021532 2000.2515776254004 1221.8474442684092 230.98500065226108 2147.3886978421651 86.70794664695859 1408.4887629305595 236.09202008505235 66.246477397624403 677.55137938656844 2279.6686874890001
leaf_count=30579 74436 88273 72017 10701 11463 19533 202412 22875 79694 11725 140283 344964 14241 5673 2911 71728 2911 84129 71930 24250 72354 49471 1514 118613 1446 66001 23323 1004 8809 86427
internal_value=0 -0.00492585 0.0180597 0.0026333 -0.0153365 0.0320657 -0.0174573 0.0103922 0.00746772 0.0226667 -0.0248993 -0.0283214 0.00141002 0.0230404 0.0173292 -0.0041706 0.00338342 2.87095e-06 -0.00879438 0.00843803 0.00186008 -0.0244184 0.0529687 -0.0129217 0.0414053 -0.00438978 -0.0142152 -0.00903333 0.00394834 0.000852603
internal_weight=0 29457.2 7852.44 17065.3 12391.9 4017.56 11542.9 7973.73 7287.02 2076.09 6208.27 5567.27 5210.93 2806.49 2359.65 9091.59 3834.88 3492.01 5334.63 1344.99 5381.77 4898.58 1211.07 3709.81 686.72 3381.52 3764.62 629.245 4874.72 4197.17
internal_count=1815690 1552566 263124 678141 874425 101648 862962 261172 249025 59854 565297 534718 189171 80601 74928 416969 161476 158565 297665 48129 210083 394435 21047 206886 12147 137729 225735 25254 174930 166121
is_linear=0
shrinkage=0.1


Tree=23
num_leaves=31
num_cat=0
split_feature=129 29 108 107 133 13 64 108 13 14 50 29 128 74 13 71 128 14 72 125 134 131 129 110 112 128 135 118 131 107
split_gain=288.093 189.936 155.369 136.485 106.206 84.3835 64.7368 64.3084 61.6245 52.9727 53.8832 49.5843 48.3048 46.5126 37.362 36.7409 36.3481 34.0784 43.9667 33.1068 31.6672 27.7424 27.2736 26.8777 26.4178 25.1904 26.1825 23.5637 23.3912 21.7972
threshold=61205.000000000007 2.5000000000000004 22.632789750000004 35.259330750000011 113.00000000000001 4.5000000000000009 0.025401500000000004 30.498348000000004 6.5000000000000009 2115.5000000000005 0.00047350000000000002 1.5000000000000002 11.500000000000002 120.98170550000002 3.5000000000000004 31.751309500000001 1.0000000180025095e-35 38.500000000000007 7.9899095000000004 1.5000000000000002 37.000000000000007 25.000000000000004 129401.00000000001 -39.640324499999998 -4.1468369999999988 15.500000000000002 64.059907592407612 -7.5841379999999985 77.000000000000014 41.35778100000001
decision_type=2 2 2 2 2 2 2 2 2 2 2 2 2 2 2 2 2 2 2 2 2 2 2 2 2 2 2 2 2 2
left_child=1 9 3 4 6 -4 17 8 12 10 23 -12 14 -10 -3 -8 -16 21 24 -5 -6 -2 -20 -1 -19 26 -9 -23 -15 -18
right_child=2 7 5 19 20 -7 15 25 13 -11 11 -13 -14 28 16 -17 29 18 22 -21 -22 27 -24 -25 -26 -27 -28 -29 -30 -31
leaf_value=-0.065107443994638456 -0.054188836285320875 0.03117172171871261 0.072653964197294169 0.067834288115730723 -0.0055405065146357591 0.024601223561536822 0.0061785207948565086 0.0094570144086030331 -0.014729653819210212 -0.05968074554471095 -0.040924685297914945 -0.014689270892477789 0.033628490449119655 0.0031558491599665631 -0.0091427392560297568 0.04037153412175342 0.0059973180947780905 -0.030824556946477358 -0.0052904339919061872 0.029280387623228446 0.036743896646877883 0.036913662788619704 0.026570357681574869 -0.01024545154697544 -0.0089206596018689688 0.04939532801473509 0.060773672285637438 -0.010387363887379174 -0.020616837834803538 0.040456319032257874
leaf_weight=90.916948639700422 51.670846492168494 421.26900511735585 534.45634138851892 356.35213663731702 208.41243144543841 1159.1920321455109 4662.4147668814985 1181.0042739078635 4426.3853371046716 308.94476270217274 1505.3874068678415 1384.7706142480456 569.22747862146934 3408.6248828645184 2159.3382855567324 337.03427383862436 1882.6234094289539 1179.9169352758327 1574.302656488202 598.73351192486007 1163.4630514746532 349.48233581637032 323.85640000720741 4964.7106196248933 1035.5657637420227 235.26743584964424 108.59703353466466 150.25899216195103 470.99144805944525 203.50131937011611
leaf_count=14938 2415 8675 4681 3306 3026 24538 171259 31617 272866 55853 152322 96786 12024 129377 101280 6832 64894 131082 77320 11360 10256 9609 9266 330316 47816 3537 1637 5061 17894 3847
internal_value=0 -0.00685497 0.0114219 0.00741634 0.00427671 0.0397743 0.000579563 -0.000174449 -0.00236745 -0.0190471 -0.0174653 -0.0283588 0.00612779 -0.00772391 0.00277059 0.00848638 -4.59138e-05 -0.00789188 -0.0110226 0.0436813 0.0303129 0.0154432 0.000141374 -0.0112353 -0.0205916 0.0192933 0.0137905 0.0226723 0.000266774 0.00936536
internal_weight=0 23321.6 13685.1 11991.5 11036.4 1693.65 9664.5 15066.8 13542 8254.73 7945.79 2890.16 5235.96 8306 4666.73 4999.45 4245.46 4665.05 4113.64 955.086 1371.88 551.412 1898.16 5055.63 2215.48 1524.87 1289.6 499.741 3879.62 2086.12
internal_count=1815690 1297863 517827 488608 473942 29219 460660 647648 610857 650215 594362 249108 190720 420137 178696 178091 170021 282569 265484 14666 13282 17085 86586 345254 178898 36791 33254 14670 147271 68741
is_linear=0
shrinkage=0.1


Tree=24
num_leaves=31
num_cat=0
split_feature=129 109 52 133 134 64 132 24 38 125 42 112 132 129 109 134 104 114 125 10 128 10 100 13 6 126 128 132 80 132
split_gain=251.94 158.823 134.495 94.2666 88.3515 70.2709 52.9415 46.2273 44.9819 42.8962 38.6023 37.8015 36.4511 36.0736 33.6852 31.538 30.3066 30.1251 29.7582 29.481 47.0949 30.1273 28.072 32.3508 26.5256 28.105 26.2566 25.5941 24.5356 24.0154
threshold=29295.000000000004 34.845898500000011 0.064725500000000019 471.00000000000006 97.000000000000014 0.040547500000000007 5.5000000000000009 28.500000000000004 0.7321430000000001 2.5000000000000004 0.65333350000000012 -29.776243999999995 9.5000000000000018 130793.00000000001 57.399735750000012 1943.0000000000002 0.80416250000000011 -31.038760999999997 1.5000000000000002 10.500000000000002 1.0000000180025095e-35 9.5000000000000018 0.4213670000000001 3.5000000000000004 0.7321430000000001 19.500000000000004 16.500000000000004 47.500000000000007 8.2779100000000021 23.500000000000004
decision_type=2 2 2 2 2 2 2 2 2 2 2 2 2 2 2 2 2 2 2 2 2 2 2 2 2 2 2 2 2 2
left_child=2 3 8 5 6 11 24 9 14 12 18 -2 -4 -7 17 -5 -8 -1 -6 21 -21 -13 -19 -24 25 -3 -10 -9 -18 -22
right_child=1 4 7 15 10 13 16 27 26 -11 -12 19 -14 -15 -16 -17 28 22 -20 20 29 -23 23 -25 -26 -27 -28 -29 -30 -31
leaf_value=-0.052670126953114071 -0.054318416288757589 0.051357942584183136 0.012333847628894602 0.016414016808854678 0.070037674311881015 0.0082166500263470468 -0.026843356646548796 0.011989199914423867 -0.0047761700828598428 -0.01597598576330132 -0.0064586132838293543 0.0016440478915420314 -0.010484467985428436 0.049941944535044823 -0.0018696026385032105 0.051901914292254651 0.051629279931159691 -0.01293954917969992 0.032262580433608516 -0.018404434871318012 0.0019511270296088694 0.052175860351580741 0.026101341749503928 -0.028035616013384029 0.050111050089716107 0.016908737095062864 0.043093842757156137 -0.005607039252309421 0.0074691150617982984 -0.018860216250988698
leaf_weight=315.06135612972139 159.92139540905191 280.86448793183081 1555.6272212733165 630.14684076677077 557.86993544985307 3318.2851758085308 246.46628348063678 3273.9652846204699 1249.6820829549688 2467.4837917323748 111.46454728161916 393.76050626381766 1272.4954238217324 221.04869342013262 901.84272984135896 416.97056900477037 133.58408803242492 2594.5303263538954 335.46619349427056 2370.9675822214922 3891.2115941271477 168.63769324973691 113.49883060064167 3711.4409375522373 423.62342735583661 1524.4042300829169 126.04189262579894 1104.8483759809169 2169.1434449330845 646.46029439033009
leaf_count=48981 22415 4548 57785 7175 5682 121744 14476 93406 66434 139841 2535 13811 59554 4652 48231 2961 3100 170260 6196 170431 192828 4884 4592 335755 7680 58431 4046 35236 71520 36500
internal_value=0 0.00833384 -0.00824286 0.00187041 0.021987 -0.000818228 0.016315 -5.35978e-05 -0.0170328 -0.00634032 0.0489447 -0.0062207 0.00206335 0.0108268 -0.0200314 0.0305587 0.00646676 -0.022462 0.0558687 -0.00518909 -0.00698246 0.0168206 -0.020977 -0.0264259 0.0275732 0.0222764 -0.000380305 0.00754706 0.0100374 -0.00101191
internal_weight=0 18000.3 18686.5 12217.4 5782.89 11170.3 4778.09 9674.42 9012.1 5295.61 1004.8 7630.96 2828.12 3539.33 7636.37 1047.12 2549.19 6734.53 893.336 7471.04 6908.64 562.398 6419.47 3824.94 2228.89 1805.27 1375.72 4378.81 2302.73 4537.67
internal_count=1815690 751569 1064121 577401 174168 567265 159755 385822 678299 257180 14413 440869 117339 126396 607819 10136 89096 559588 11878 418454 399759 18695 510607 340347 70659 62979 70480 128642 74620 229328
is_linear=0
shrinkage=0.1


Tree=25
num_leaves=31
num_cat=0
split_feature=126 106 128 87 73 127 134 47 126 13 71 125 127 130 88 133 135 14 83 48 100 130 129 73 10 132 132 46 125 13
split_gain=245.903 184.909 121.239 113.807 85.8421 59.0972 59.3101 57.0649 50.3976 49.9341 49.4083 47.8484 60.1732 44.1809 43.5318 39.2676 43.0422 36.2701 33.4171 31.0726 30.688 29.6266 27.2024 29.0875 27.6846 27.1197 26.9872 26.2763 25.7713 28.6768
threshold=27.500000000000004 17.073265500000005 1.0000000180025095e-35 4.9800725000000012 8.9342450000000024 1.0000000180025095e-35 201.00000000000003 0.82575750000000003 17.500000000000004 3.5000000000000004 31.751309500000001 1.5000000000000002 1.0000000180025095e-35 91007.000000000015 2.6910740000000009 33.000000000000007 1.2666666666666662 2419.5000000000005 9.3014875000000021 0.10620300000000001 0.27270100000000003 91851.000000000015 445.00000000000006 16.811786500000004 10.500000000000002 64.500000000000014 5.5000000000000009 0.70294100000000015 1.5000000000000002 4.5000000000000009
decision_type=2 2 2 2 2 2 2 2 2 2 2 2 2 2 2 2 2 2 2 2 2 2 2 2 2 2 2 2 2 2
left_child=2 3 5 14 7 6 9 15 -6 -1 25 12 -5 -13 17 16 -4 20 -8 -15 -2 -16 -11 24 -24 27 -12 -3 -7 -30
right_child=1 10 4 11 8 28 18 -9 -10 22 26 13 -14 19 21 -17 -18 -19 -20 -21 -22 -23 23 -25 -26 -27 -28 -29 29 -31
leaf_value=0.018671523983960225 -0.013822800107987582 0.0022148760040082214 0.018694999858889227 0.0031273677930446922 0.070023174103794425 0.086221108574041819 0.015007338107282803 0.065271747135441163 0.030160967925814665 -0.056337815067064256 0.048040900806457475 -0.011113957105110589 0.071342290641817227 -0.0070855086684318662 -0.020350999528622609 0.033427854527692827 -0.0034085273375992105 -0.060416967446818771 0.080525291927155615 0.0080662274081714606 -0.029215379610002142 0.0013868617987649317 0.0078650858388655178 0.048483651091503308 -0.017339241640476212 -0.014316132527530898 0.015508630990637979 0.021661836937244695 0.026343914414629147 0.00061101658910269656
leaf_weight=567.9581668337778 2399.2563375437312 1554.1597104577522 1851.4896701172693 432.13934671884635 470.75982599786948 52.544492433255073 508.07824022806017 216.01971133326879 977.7977006296278 141.40137563366443 525.97463348586462 5798.5527003009047 184.64593828574289 2416.043765022303 1115.3366460786056 746.65165911964141 1679.379806091747 260.28587348439032 92.014484248822555 3076.6548583225813 2824.3485808451369 1429.9035021913878 524.91564323141938 78.667493207089137 2551.312776970939 501.41730029712198 497.42536080052378 1258.379959510261 997.47126996080624 766.73237181616423
leaf_count=17707 162511 52724 62467 16235 4821 1374 15595 2797 20066 10698 8462 283993 5049 134971 77474 7064 70157 51650 707 119044 320254 89854 17213 1651 140265 17342 11645 34561 24504 34420
internal_value=0 -0.00567733 0.0117145 -0.00974846 0.021954 0.00202586 -0.00416015 0.0151258 0.0431264 -0.00870435 0.0130336 -0.00354344 0.0235732 -0.00502577 -0.0189497 0.0125895 0.00817932 -0.023967 0.0250819 0.00139969 -0.0221477 -0.00813527 -0.0134247 -0.0114965 -0.0130351 0.00709816 0.0322414 0.0109198 0.0172318 0.0151666
internal_weight=0 24274.5 12223.2 19937.2 5942.1 6281.1 4464.35 4493.54 1448.56 3864.26 4337.36 11908 616.785 11291.3 8029.13 4277.52 3530.87 5483.89 600.093 5492.7 5223.6 2545.24 3296.3 3154.9 3076.23 3313.96 1023.4 2812.54 1816.75 1764.2
internal_count=1817275 1385769 431506 1261035 167372 264134 203836 142485 24887 187534 124734 559292 21284 538008 701743 139688 132624 534415 16302 254015 482765 167328 169827 159129 157478 104627 20107 87285 60298 58924
is_linear=0
shrinkage=0.1


Tree=26
num_leaves=31
num_cat=0
split_feature=129 109 29 108 129 49 126 129 133 58 47 126 114 44 44 122 128 133 134 127 69 128 126 14 30 11 71 129 18 46
split_gain=211.431 135.833 113.681 86.4035 75.8442 62.3809 55.6464 49.3585 47.994 42.4406 54.1465 41.2302 39.3259 37.7804 33.1291 32.3698 32.1947 31.0858 30.469 35.2569 27.2367 26.6571 25.436 25.1103 24.2564 23.3665 23.2898 22.2041 21.9211 21.8033
threshold=38919.000000000007 44.088472500000009 2.5000000000000004 17.813436000000006 129073.00000000001 0.077178500000000011 25.500000000000004 445.00000000000006 245.00000000000003 0.12250000000000001 0.29520700000000005 19.500000000000004 -4.4520109999999997 67.72375000000001 93.611111500000007 -24.647899999999996 8.5000000000000018 1.0000000180025095e-35 1.0000000180025095e-35 6200.0000000000009 2.5000000000000002e-06 8.5000000000000018 28.500000000000004 1890.5000000000002 1.5000000000000002 1.0000000180025095e-35 28.182177000000003 130889.00000000001 13.018011500000002 0.7247475000000001
decision_type=2 2 2 2 2 2 2 2 2 2 2 2 2 2 2 2 2 2 2 2 2 2 2 2 2 2 2 2 2 2
left_child=2 3 12 5 21 8 13 20 15 10 -9 -6 17 -3 27 -2 -11 23 19 -17 -4 24 -12 -1 -5 -18 -8 -7 -10 -27
right_child=1 6 7 4 11 14 26 9 28 16 22 -13 -14 -15 -16 18 25 -19 -20 -21 -22 -23 -24 -25 -26 29 -28 -29 -30 -31
leaf_value=-0.021025823472233848 -0.03416749101801031 0.057101834030032585 -0.034347239362419235 0.026273248800195326 0.076105404959208645 0.015726545575167235 0.013232298843653068 -0.014120348044492057 0.0035841641388643891 0.003826981654063772 0.017353905770308334 0.022296050161277121 -0.0029939107147581531 -0.0032028223182361429 -0.010170675152583322 -0.0029267630920311403 0.038136903157370734 0.010495425270044587 -0.012059570792765035 0.02256675802463616 -0.0082791804996949821 0.030334179571761849 -0.00058696579292423663 -0.051993231430001244 -0.0020300760759471115 -0.0032791011324064417 0.044804736028647943 0.056208735170882186 0.03976432215928901 0.035495524519893913
